{"HIDDEN_LAYERS": 2, "INPUT_NODES": 1024, "OUTPUT_NODES": 10, "HIDDEN_LAYER_NODES": 128, "HIDDEN_LAYER_WEIGHTS_0": [[-0.6362126951238486, 0.8662071778675231, -0.9589141468151946, -0.8544898426744745, -0.2689170159017657, -0.3187283667164719, 0.23887780733833341, 0.6982564012512917, 0.8782525965988212, -0.9434666514138065, -0.3070794995475404, -0.6021060364064315, -0.9160781921619934, -0.46528778402635484, -0.6465318486241025, -0.1543984779759111, 0.7335811221697446, 0.8585153169912809, 0.8187788515638182, 0.2355668816226499, 0.2925131120959946, -0.7219123404154667, -0.4491104791747319, 0.07073669555327121, 0.37204845621143523, 0.27631947684781993, -0.9793495115213248, -0.8780239783467307, -0.838461324137511, -0.9701918092106504, 0.3118388423846781, 0.044636668431386986, -0.17900740800831835, -0.8772770052650015, 0.6067634666851408, -0.7185874709600284, -0.5937522894799283, 0.503071299108536, -0.8795300293317343, -0.10590135024626571, -0.8377193623973319, 0.315049283655594, 0.7769229571257193, 0.6124256448607124, 0.27642110007447557, -0.6766073219390532, 0.8064907394576477, 0.47979797761966014, 0.25956609730475083, -0.8760779711999093, 0.6663120580767434, 0.9211475328817977, 0.7442471651956397, -0.08566172304094005, 0.34848515684310366, -0.00040060709122577784, -0.5729787444486959, 0.8332771360939317, -0.788205222190612, -0.724582315068395, -0.5871198331069681, 0.6316776509068706, -0.11172073586098485, -0.6516823695737289, 0.47664693517407003, 0.10647039675293275, 0.019337015117884403, 0.8939692020222425, 0.676379650484309, 0.816695639100818, 0.7269518572626783, -0.43665415700008, -0.7349084013323827, -0.9436639898768213, 0.6942213940651131, 0.2857179174676843, 0.12291518842491038, -0.2329107081541017, -0.07690162006179957, -0.6768357944599178, -0.6957501992021297, 0.24624702225204131, 0.27294046357550555, -0.6126357305869586, -0.2561042617946348, 0.8312035927906327, 0.7053610544509523, 0.3825817643615213, 0.23317005991229567, -0.6992681909183859, -0.4479275936432108, 0.09475306110133196, 0.3641421352755563, 0.22113923402325097, -0.5250193373404969, 0.5097605418908828, 0.35355263280386634, -0.6267506680662279, 0.050682670132746785, -0.385856359164258, -0.9320408705981406, -0.2024174847440575, -0.8046106190314432, -0.6097436094557391, 0.6493237894792367, 0.8193890375481622, -0.8517000701198553, 0.6128987767756072, 0.15459001059808916, -0.8286452471474011, -0.24934051880918562, 0.6143461000954183, 0.7122301533075442, 0.5501289620323615, -0.817021416613135, -0.30501372230977664, -0.6366130227530501, -0.6443422955836673, 0.47449820421262523, -0.12212627203123701, -0.13398451318422017, 0.37819941066624074, -0.7168552156059109, -0.2883457540993447, 0.9742928794530563, 0.5363794327008014, 0.921000033627764, -0.630869144501802], [-0.6336109817455877, -0.2598419966352595, -0.6413887000641851, -0.9405844182899437, -0.15318593478189105, -0.5892187190066085, 0.08752475784098379, 0.4192117225267246, -0.7308943120233927, 1.0083503328941072, 0.8570051888354199, 0.008028869015793586, 0.6633279502877516, -0.9286207613115272, -0.5762607599123217, -1.0110315552346996, 0.6290566756395584, 0.07460837051703956, -0.3097765907044134, 0.2098950848543941, 0.34257785804755475, -0.8500709549885966, -0.08569874248176518, 0.4813844849042301, 0.3732623221263731, -0.36435235238733754, 0.3870072008821115, 0.7145741473847259, 0.18486446361575148, 0.42056949414681327, -0.41180140335613985, 0.3588628477579642, -0.24072594220371404, -0.05356328391919193, -0.286014303889413, -0.9654625166519504, 0.28741813047049125, 0.7133984803140634, -0.8218307362406894, -0.7122655259641059, 0.6524972989620786, -0.8440332142872805, 0.3567264261074325, -0.24933883048036998, 0.7914711140241788, -0.6831466484073637, -0.1749666973438398, -0.6451440910650927, 0.9509558374691438, 0.906172597990281, 0.007819811111842387, 0.7423972510147812, 0.544842628186654, 0.5571491192068181, -0.4540252433233821, -0.21755637883811146, -0.49887501950310165, -0.45275601856421566, 0.7012894603608651, -0.30823380638570474, -0.8744751987812482, -0.9439117591525853, -0.10920325471169612, -0.4153524582164299, -0.12377027789246259, -0.6483642690444058, 0.5783877615105818, -0.14532116580405494, -0.6290793796433886, 0.6362027248910372, -0.24890536495982724, 0.718007607353357, 0.5110851153344581, -0.20480723984731525, -0.016286478667236263, 0.9921989426864801, 0.0055536363888467055, -0.10410558444226617, 0.40606104876298743, -0.5668749801429716, 0.4660597464432003, -0.4419154036294018, 0.23764374923979698, 0.2423359952451136, 0.6352884399118349, -0.22397494688292072, -0.004508216088918237, -0.14935772705239325, -0.8032814722988737, -0.47293563043041736, -0.021402093815098548, -0.21986273615134952, 0.1298917722330113, -0.7608601609026411, 0.5376221048018436, -0.9530064355538893, -0.46386433120232023, -0.8305359958721564, 0.9101576128398834, 0.12342438425385731, 0.05192543299294042, 0.5120068671112605, 0.6675659639494356, -0.03035553861740111, -0.2725367281926785, -0.39254554379248224, 0.3777307288600026, -0.026470888327574403, 0.5288653109608985, 0.8370634333924178, 0.8178339114325567, -0.6549504016663757, -0.36200148279600886, 0.6042137790269149, -0.1079075833581046, 0.3119284528510622, -0.7985458701059285, -0.5051010902411819, 0.26124926944718463, -0.9827619459298086, -0.5185088186659214, 0.012467058914464245, -0.43055592052905456, 0.6168060334437838, -0.8674843713323569, 0.08068602658031977, -0.7132153044456249, 0.8808417515587206], [-0.8952307791124446, 0.8372327616861923, 0.9412521669445787, 0.9650069455984447, 0.5985733766193124, -0.43317217357749654, 0.6082619765755147, 0.4776700188853121, -0.996575449021504, -0.4035043452088793, 0.5631997353885975, 0.13380652724418066, -0.2249723018834816, 0.12485318270278109, 0.7131110878167459, -0.07057766649916636, 0.6426228590349647, -0.38384352023363666, -0.5422379526290306, 0.9788909302955711, 0.476736819814683, 0.8552330029103659, -0.6071681077454513, -0.6178544277679429, 0.1899154222289252, -0.9714928678765776, 0.8940948251433223, -0.994076409784333, 0.719959210051787, -0.12378034419527868, -0.5269685712952438, 0.6520664222753524, 0.5911115568416196, -0.5600188076798716, -0.3285801299693918, -0.23008508226502297, 0.7432165638634798, -0.9070802274281462, 0.9661613750811593, 0.2579665208103015, -0.9642825219116995, -0.6165708805389125, -0.1573680685733895, -0.07420879368299224, 0.27053435690500266, -0.5253879733080138, -0.11096326886466219, 0.5002634530892964, 0.37756577455257817, 0.0029543237121840782, 0.20585775028073938, 0.2566739319243116, -0.04540252046537833, -0.9490820489727501, -0.2558325466877857, 0.6009196636462768, 0.6385516230713008, 0.1436895389481927, -0.38655206522944463, 0.9064473228427206, -0.6204168917336851, 0.918237651031789, -0.9393958713047312, -0.057738945168300936, -0.5333274358754748, 0.8627291864777601, 0.8174686577324694, -0.7659342799208769, 0.9379413062537998, 0.5016412925980729, -0.868146798347277, 0.012761538142508237, -0.7354608291933585, -0.7806467990668275, -0.30097236197976335, 0.9647563455157055, 0.7180293447207847, -0.2920224287677277, -0.6632327515282102, 0.6516650042443531, 0.3634806268617302, -0.2488617057923479, -0.9870555301522491, 0.8618409759857528, 0.08464006503329502, -0.838963229509428, 0.739772401946508, 0.1117895960433512, -0.030824335406205536, -0.2073491348686173, 0.13792301346531166, -0.9187336418236705, 0.15905992234714672, 0.9599890805970384, -0.3120199356038255, -0.19400805396826906, -0.042661574542012165, -0.3504127856590179, 0.21592220010505836, -0.8805312458718401, 0.4440761548204436, 0.03312579784100381, 0.3598721229692544, -0.43160396359299624, 0.7070691078704574, -0.5704859207647326, -0.13988765904501554, 0.4893044826420371, 0.5276570584460346, -0.5806009718565712, 0.45578725881813975, 0.13573688880003829, -0.6858148871921477, -0.9799803712836597, 0.8972122069743963, -0.14492879915610443, 0.2855687292380511, 0.16594747144640384, -0.05838763369014989, -0.4595775599888762, 1.0088214772814506, -0.9479142349576156, -0.6940032652682945, 0.4479780847435405, -0.5970028148008893, 0.8103256618573748, -0.5206761225709388, 0.20538278818671368], [0.21753047845864334, 0.24764334725830284, -0.8929971297517386, 0.36320044056541256, -0.2609509155252146, 0.058890977735572454, -0.5426842354612536, -0.23717507203392493, -0.5613945802629848, 0.9675059880673649, 0.2452061614846771, 0.36790548588410854, -0.7577205438678923, 0.04306675325411104, -0.5054331340001755, 0.3949974941090859, -0.9706984463108127, 0.7100416216529303, -0.5615839249416841, 0.43334916777849164, 0.8524744131280507, 0.817546377919869, 0.9569945684359019, 0.7192312028980525, -0.6069599365151428, 0.6430385592370057, -0.09262250322683015, 0.5182477344678011, 0.1667972796208843, -0.15067837839204573, -1.0211049990645191, -0.3799300421535214, -0.47936420355933496, -0.9623758614328802, 0.4994173762227749, 0.5978134171725143, -0.3279262198456449, -0.7476666661458233, 0.08929794712173043, -0.384380653979979, -0.9289804590636469, 0.6830394913852054, 0.10010535357037954, 0.522022773152749, -0.4241881756490712, -0.4856895805355422, -0.028726248867702857, 0.5270246306314945, -0.6034503506688708, 0.4655587664134273, 0.6809688760282884, -0.9883658061912718, 0.11045407128487857, -0.07055472869222532, -0.4391695567162767, -0.8813969740254203, 0.8315434957681165, -0.6031638565245734, 0.9204410734282968, 0.26144563971191426, -0.35859745496294465, -0.7519373001189741, 0.3310977723518256, -0.8326452867397905, 0.7890927612720171, 0.7123797154540293, -0.579122108677952, 0.2398290008448622, 0.3220935832591118, -0.5874604094916416, -0.28499194640767017, -0.7525756532983248, 0.6928750229347613, 0.48371208995603177, 0.9881941017042654, -0.9459960851734801, -0.8469555372474423, 0.5289464033408403, 0.7146623199705169, -0.24375144900223827, -0.5265988410846271, -0.1895974117175189, -0.04713224305414815, 0.022708782551486607, -0.9423013541307619, -0.8101903993303239, -0.6743162245654165, -0.8884192219993798, 0.13904247111412435, 0.2025526333925087, -0.06098972982998615, 0.2691786310614183, 0.8443865009143487, -0.49451732504500145, -0.517132840708077, -0.5323209722418023, 0.7896601441747378, 0.6304378197968571, -0.20935565199836748, -0.48458717406733687, -0.31805300603055936, 0.5865861136196256, -0.16790051970929298, 0.6837712244937018, -0.6384194528679477, 0.1273220069849486, 0.06911616258229375, 0.8064880299246665, -0.4294990600860332, 0.35456152343239156, -0.7997957311008133, 0.3991420980074867, -0.25404113236496995, -0.3405619164791489, -0.10069594086757866, 0.3735474671309716, -0.6173517950936156, -0.4202092903904598, -0.7697360660463893, -0.03797766134336245, 0.0294824763642257, 0.9249762859040582, 0.14422763963485774, 0.3105888358795648, 0.9871340982758593, 0.6998598165029765, -0.027557387580712665, -0.7681859140272094], [0.5879245911419412, -0.6125392179701532, -0.533107947502737, -0.24533692721103528, -0.8000110546001613, -0.3846531205836967, 0.8966133119895314, 0.4380761662334925, -0.7246694810555209, -0.130476086775387, -0.8043744373257363, -0.003427028155708344, 0.564706611015611, 0.6259983837663988, 0.009248279748316926, -0.8567999359220789, -0.940331602112104, 0.025099933474116022, -0.9122438739179745, -0.3590408110343255, -0.8253234590212251, 0.13949339607946323, 0.13052320354742694, -0.0019144031759950227, -0.9998036443045777, -0.031744515725467104, 0.14084604191293584, -0.31226392179828216, -0.9162162853543764, -0.2283060210271337, 0.23391508153540144, -0.60822892106914, 0.29535543338862313, 0.5800421816308579, -0.10279613980001635, 0.08996574068348506, -0.7407311107124006, -0.46928675844424017, -0.32981983422351424, -0.16623691290837048, -0.39064362597338753, 0.33525085355830625, -0.6478273722916013, -0.8210531480996411, -0.977777750562874, -0.37105956612121554, 0.5888140169411282, 0.4314527483410082, -0.809112741837417, -0.3238896685094217, 0.9376897126269256, -0.18670223843056027, -0.7268040275411094, -0.03923240325902971, -0.8007561057713939, 0.09050301244781644, 0.8839858381409869, 0.18308264530306362, -0.1563459935646923, -0.7418352363778481, -0.9124441586523951, 0.21208419283008664, 0.29269167405408325, 0.6417796225158469, -0.28655317725824164, -0.5180358062996241, -0.9800050265312865, -0.8683974491319925, -0.01042293752080126, 0.4029819914461393, 0.6420985885397434, 0.3859190778675765, -0.15673897707451503, -0.7772553101818611, 0.8609379990151663, -0.09938086249801084, -0.6562476827646139, 0.8042751613841657, 0.6044635949846819, 0.4127879510619458, 0.0169056051381941, -0.24159798786035908, 0.2748828488498446, -0.47470403620116475, 0.206744483155915, -0.7504574849245678, 0.5890317362319699, -0.5854303823052502, -0.4383368678720347, 0.6663295817623455, 0.8794772364408691, -0.38661433644069204, -0.38622024358759544, 0.7885228171650853, 0.6419726636245299, 0.4726009171040602, 0.5024102706020146, -0.6184576505601637, -0.787156961055731, 0.17742563367538522, -0.6225137794984845, -0.0068917647643713656, 0.9205603728217238, 0.16206805643727312, 0.6264585167722915, -0.6176255734231901, 0.27671752095780505, 0.9141219223565868, -0.96283754346014, 0.6159891759781162, -0.33515136867929596, -0.5825836234793927, -0.02222734418497306, -0.9581042433105884, -0.4189796762623098, -0.14216738689248323, -0.8824429636742175, 0.1048418479193912, 0.41967551242615875, 0.35505758016886935, -0.21824586993935427, -0.38026133044204585, 0.5033018073646592, 0.5136529258813644, 0.8519539320201099, -0.4512187644632636, 0.12217487314955275, -0.5748192031234357], [-0.29765522389978133, -0.08180013544495482, 0.15556083076367205, -0.7812023132411172, 0.12501848671048327, -0.8619327299781183, 0.2803644273550963, 0.39169740197480035, 0.6031391257933921, 0.5530855937090997, 0.24389594892106767, -0.9164146719002249, -0.9063522385558382, 0.5313077650424177, 0.4674992245157047, 0.37138335329605177, 0.06385546524347212, 0.5879642153624582, 0.7294335857846529, 0.4988815375821836, -0.9251397883607494, 0.07434494648776827, -0.17694299638881406, 0.8212624111863203, -0.18418336283596837, -0.26264240857159604, -0.04801388966110521, 0.7316350943294594, 0.7912407485793725, -0.4959796956603778, -0.7167098782795998, -0.6622774461815522, -0.19371944224431492, 0.5573200745143854, 0.6961247992312062, -0.14163582290334623, -0.9809574492434194, -0.019757291685080336, 0.5080067643575784, 0.17105037690212602, 0.8367294425704557, 0.900610312935033, 0.5249940711539476, 0.7264149486347473, -0.3736689019672156, -0.8346909864196428, -0.4480313561750263, -0.9754282554544726, -0.15811948302621037, -0.869927700624292, -0.015972189759279946, -0.3854590287057811, 0.13651414161879274, -0.11504135518988622, 0.8659274686569651, -0.03849206744052824, 0.8469273182719241, 0.21844716223035276, 0.7773969303433222, -0.12428279734082942, -0.8795261549110275, 0.6473015249136617, 0.08507619730891824, -0.46413215119313483, 0.00033653986294106844, -0.758402288433429, -0.9822932712995771, -0.7536069926771156, -0.2971038942290451, -0.8580670596446728, -0.28089805800392365, -0.5556979384378467, -0.8828815462585109, 1.0060175762135413, 0.48056926537012723, -0.15117970161571548, -0.31644581581956777, 0.9110032015695623, 0.785771521455561, -0.15822367320992084, -0.41187973760099633, -0.49747466684012454, 0.8396073280528324, -0.6801195080436699, 0.8086638395328157, 0.5999674813613499, -0.538143059369734, -0.5952336338843625, 0.4403009346211947, 0.6677575754955307, -0.444741136264748, 0.49016861091508446, -0.5089197865462178, -0.988413010864982, -0.3896767053846501, -0.3696010192852278, -0.33940632825197303, 0.9677260303718056, 0.5529291446059039, 0.4908139804652877, 0.10136112572232882, -0.20510558710578955, 0.30677104782941367, -0.4364848764161718, 0.5849299972764868, 0.895005187027045, 0.5272726171775433, -0.8046374943711637, -0.518573028415345, 0.3122792029905326, 0.2116955509904324, -0.9249322553933569, 0.7042551032182333, -0.19379666855220057, -0.3658585739817765, -0.4273072857941677, -0.8027485390275917, -0.624901549854653, 0.2254943058519855, 0.5375379901575748, -0.18870100933379147, -0.5599490574158151, -0.20900642665483538, -0.25108031075016546, -0.2994744385174298, 0.43456884971362, -0.5443855626134644, 0.12931625596658974], [0.956266856617008, -0.08539616592539441, -0.4500906994319205, 0.9513444867230778, -0.01202159352585508, 0.4654891371971891, -1.0180957742864347, -0.5577918644982353, 0.4485634415881232, -0.0684582028030032, -0.6348752669414619, -0.6215730580274654, 0.08912812298675882, -0.30193571492226845, 0.1400901975668842, -0.26635756461197274, 0.7319165868134854, -0.08023202915142319, 0.24581569919078966, -0.21146510946363783, 0.4866443999775323, 0.10965940249697148, 0.45725429461679273, -0.7135285257234745, -0.8792022506134234, 0.5167870760320125, -0.49013631833793125, -0.7570367486562571, 0.01511673959886149, -0.0028871168231547903, -0.05734507073737698, 0.9976258765838507, -0.08028012329873692, -0.4568835590772625, 0.47950993381248713, 0.28850164235254944, 0.4878707816533355, -0.3897595425685141, 0.0026071532722414387, 0.7770592047088063, 0.11945484157103264, -0.6417400457569347, 0.911247886942147, 0.6794799714674965, 0.20560814531898913, -0.5926887315928484, 0.5951891167345863, -0.035188480556622936, 0.8473538619134716, -0.6013300878577044, 0.2700671127934754, -0.6905201592026409, 0.7846113618602393, 0.07013000699868095, 0.23194054991024382, 0.4807997860233997, -0.8033306912224857, -0.2097111154868132, -0.5965848923080344, 0.1573616795917451, 0.47145010655076575, 0.11561305096495533, -0.6669432822281611, -0.8357387524008029, -0.664956952066978, 0.9100597022656118, 0.02774787826207051, 0.6254453433368242, 0.28658942546094623, 0.4547010930399602, -0.8705847638554373, 0.6015197032708913, 0.18537496898502928, 0.7058318653354604, -0.23070375585329736, 0.42601612330362065, 0.7492435018637807, 0.2723374432643707, 0.006035880428586049, 0.07181394449448766, 0.24061816420820753, -0.9711249734794585, 0.5730150049268581, -0.47920596521853476, -0.8840280857875187, 0.8658758662822936, 0.03912785536610695, -0.8661646466454758, 0.08137728556015843, 0.7765202927411521, -0.7200931149083861, -0.19470977619387647, -0.6878137178887851, 0.40851555442693543, -0.9977986491752686, -0.45835059455585336, -0.25204935831272474, 0.3141313366196562, 0.13639790312568462, 0.6920219040342925, -0.9485786002905543, -0.7895506878100296, 0.709628939825008, -0.8463500715599943, 0.037070304824963825, -0.295907187617717, 0.07394296920158845, 0.8509444412478305, -0.7725211781706564, -0.5145216877708805, -0.7962520150226213, 0.7658085673529536, 0.45832367222256293, -0.1968720432185096, -0.9724674238091211, 0.2714996869100931, 0.17841098907855782, -0.6896689045925344, 0.89511414845672, 0.6200820099182079, 0.9126777782549218, -0.1157121380092995, 0.8476524064566441, 0.8240843282952914, 0.10982921777412215, -0.2477147303153244, 0.4634000852105821, 0.9274048744465815], [-0.07752434284149363, -0.6361726229583977, -0.21466453482790834, -0.17498284358617067, 0.15234939445759016, -0.38306503631598093, 0.760851234650161, -0.9488603821686379, -0.2808970105911794, -0.6772937824776927, -0.05004716493370831, -0.5286411104506042, -0.5568281945572612, -0.4095609120731947, -0.04517580415483415, -0.9770129527728316, -0.6350369594330089, 0.2775913698116173, 0.25477693904642706, -0.6355423005089733, 0.8075701830866411, -0.025307901808349013, 0.8385390117397449, 0.8664090569094322, 0.11669925514074886, 0.352934306894293, -0.49228566758247744, -0.8408377369535674, 0.33024707467240666, 0.3057798907179828, -0.3053521928899308, -0.19632952896397332, -0.44770773462003965, -0.6292393379569506, 0.09138411732549609, 0.26790289090364433, -0.7713838828028857, 0.912503859777267, 0.8459011287354226, -0.07462805579385265, 0.005207391498132906, 0.8260757395911532, 0.4095740158482719, 0.9643277593555255, 0.711668959846481, -0.6369478930103144, -0.7149403628335715, 0.459871030533318, -0.994031823027318, -0.05316219919748779, -0.331691823766164, -0.28156001204433057, -0.9969917962503331, 0.21892385026159916, -0.1275708586435687, 0.7181677076916543, 0.5006828667971414, -0.22668947209507606, -0.9648612121478928, 0.7362751699424486, 0.04041499569091768, -0.6926096132240586, -0.5784821045710342, 0.6012194885990562, -0.356107426803979, 0.6069634961383765, -0.1699622551585734, -0.6830089454785865, -0.6804820482842086, 1.0171579891249392, -0.6218502127621757, 0.38327144503593774, -0.12273783469639149, -0.901659465587046, 0.6350374709785764, 0.506455805027146, -0.6317885919956129, -0.7266294603672014, -0.4371768725272356, -0.6959250416373232, 0.9989650537735738, 0.17706236733777608, 0.01748928330519991, 0.3086766984865009, -0.3112372600325611, 0.9088196080158732, 0.26237270648797834, -0.3463448560341747, 0.8756372939901046, -0.615737834083709, 0.7480890634417479, -0.6139423189271316, -0.5188039589713285, -0.3820952432954441, 0.7843528915694762, -0.8341133802033031, -0.36741849891125195, 0.2134012541606867, -0.14519646505052025, 0.2751072511811737, 0.5037611392172182, -0.6035004996964606, -0.20469521522016904, 0.27117506398622465, -0.1897586258985114, 0.9761246767499495, 0.33625472930582057, 0.02090738708155111, 1.019242208294902, -0.19066147423461888, 0.35738893057978155, 0.5432544244852743, -0.5975094143432533, -0.24716041595116, 0.8150882248247568, 0.38722820053123486, 0.6410280049787728, 0.871336182984857, -1.011234834505815, 0.7070834281913374, 0.9209177604526875, 0.9018138971248623, -0.2045688809338077, 0.240767526486005, 0.37897787040544306, -0.6580765159123654, 0.8263626603137264, 0.9510228135188282], [-0.78276247869389, -0.01716671492933561, -0.3098162078617973, 0.6813131863278028, 0.1239139191882948, 0.8930639453949956, 0.5182163952961081, 0.44412024367263087, -0.18746568184058826, 0.08343031963575315, -0.9418822887035377, -0.15001660345693713, 0.5200156008470073, -0.9767093373126923, -0.6022853795668386, 0.5167371104337432, 0.9963778887370466, -0.5176581476743134, 0.7037370302245848, -0.125652309814362, 0.6329143448291703, 0.4461582164952168, -0.048556346062636584, 0.6899760996384238, -0.20437114581417481, 0.47306475924563396, -0.7700099796976958, 0.31121335788782845, -0.5521875252879692, -0.6636764819118143, -0.14874871674970214, 0.7728511224659674, -0.43217501146100656, 0.17625674218024545, 0.4874994115604221, -0.16219792777917497, -0.045821630959565214, -0.6285523273130005, 0.4091176117211661, -0.9656538458781064, 0.35466810606519683, 0.574070765230152, -0.3941229413978155, 0.010022224347827262, -0.7141269118625283, -0.26934868871538126, 0.40839856307029543, -0.6909610411955847, 0.35440166429191083, 0.8671648652066171, -0.4682425823523655, -0.27951908688048704, 0.354238454547383, -0.7608832518746654, 0.14012046537066686, -0.6492969663006547, -0.959657206771048, -0.628156462029476, 0.9402281765899758, -0.155496611097964, 0.3046770479664835, -0.8667881212578987, 0.8641967137756394, 0.9775525432425167, -0.7569027869272963, 0.636103646791556, 0.6603454982397213, -0.2666414100538877, -0.43272641224201636, 0.16640158787855255, 0.8479322348078581, -0.5271611680235654, 0.6813502433243899, -0.5538713661278969, 0.01795151630757943, -0.20285810165683735, -0.3824780791249399, 0.8532722209288054, 0.04105792190822943, -0.5018098288572507, 0.9375465259202386, 0.9398860891216042, -0.8622405704459732, 0.3402557263847913, -0.5237588190347339, -0.3255523738135452, -0.6128445818664869, -0.5594575040033442, 0.6144337498543778, 0.09663075098377681, 0.9539302887284217, 0.1834325846212891, 0.05398440718130426, 0.6133054884917197, 0.2215491830214679, -0.04947687659530351, 0.303052033668531, -0.18775491163375901, 0.6416100823581293, -0.6512984992118503, 0.4969446877954202, 0.02834052306524329, 0.36729878480763495, 0.6528544131114762, 0.4230940440293372, 0.6910802472694392, -0.6776295562642063, -0.7737282765490223, 0.48539675267485294, -0.885463655289644, -0.585895647407191, 0.7644483533675706, -0.23198386432937657, 0.5390951487469473, -0.8874168902742241, -0.7591702922027336, -0.5897421398724333, -0.6084733360136143, -0.4261947091589555, -0.26550103462645114, -0.38401966252638675, -0.11252057410619383, -0.9921217051488105, -0.53853922088384, -0.011312519457620483, -0.8280624184729063, -0.06947787413809776, -0.2790504160951012], [0.7330469532027167, 0.7111406245244914, 0.24563697373014973, 0.7547940102903774, -0.43281983072620345, -0.06925649447949535, 0.2201381149043758, 0.10746977055769075, -0.9140647384554635, 0.012703063329641684, 0.3413642384102767, -0.5013337997664193, -0.005744969497522003, 0.28763867488888184, 0.8716592725449354, -0.3384090730072926, -0.6298871990126115, -0.5370844776506356, 0.3161359941111819, -0.34883910627836257, 0.3957997737715334, 0.9302018525161609, -0.5817982708139506, 0.521503042061267, 0.830454205773774, 0.6682409100818081, 0.4211105922448838, -0.3097384817262653, -0.7127966986500253, -0.7041934103251976, -0.6831055556271457, 0.06117272234826728, -0.5386739415723575, -0.3419597742911395, -0.8829168669657508, -0.10271776629966278, -0.5733591303979899, 0.5466501850676975, 0.6176043103274059, -0.3967271890980584, 0.2691157371910448, -0.9917114871007148, 0.7695125104890339, 0.31906376575157963, -0.5001413536647742, 0.38538950138140593, 0.9081299856637535, 0.674538130255832, 0.047151588414097584, 0.26529337956263, 0.0037345660991303323, 0.5765511997066929, 0.38467993403715406, 0.03804367320380182, 0.258162703659537, -0.02384614810527993, 0.596811001533816, 0.3983662193839792, -0.5557136877226235, -0.14297986127822254, -0.48280777053210816, -0.685767903535618, 0.8301874115165155, 0.9531872916566917, 0.6281009115124608, -0.6712741140694134, -0.9540760224046344, -0.4178404935281516, -0.33215217564621324, 0.37765762506081124, 0.7740880990234756, -0.6132881024536773, -0.054498185143891854, 0.052107098431960305, -0.1753364664259554, -0.8959106117417874, 0.07097050987779, -0.6120303418722387, -0.8317664403999805, -0.5328521352000156, 0.689161327565471, -0.6696694087931025, 0.17586851203141524, -0.777140888841642, 0.6761405424586048, 0.7467158828075825, 0.5566647085944738, -0.15854433700278925, 0.201071110070859, -0.22563244336041208, 0.9207528087523533, 0.9569832282442601, -0.7965086013056573, -0.11590140885570355, 0.5905416504764287, -0.5751159859256567, -0.08830666841829835, -0.5574737824047237, 0.3764280129193036, 0.3857962079234886, 0.39101499162733977, -0.6902331270769936, 0.24890390470741966, 0.6568561388174883, -0.4483054228373268, 0.7628057333649961, 0.3489788294032313, 0.6068890707848537, 0.8239235597661699, 0.9778585787162253, -0.0905662790626964, -0.6337920258534062, -0.19184949596552295, -0.28589302711589304, -0.514795217633041, 0.1596295922798877, -0.6320294696559995, 0.9576164212504648, 0.5268299569259228, 0.7031239795566668, -0.694011783648723, -0.7741796188345275, -0.595329777445933, 0.27409748141854196, 0.20860945241822815, 0.521259573492515, -0.5051130540963489, -0.2466966307323844], [-0.78827906066164, 0.519222031241876, -0.9733580091077065, -0.49952060319855773, 0.032556198091043057, -0.9022194304213945, -0.47561288390136974, 0.16673046980578118, -0.8708920837646877, 0.7136733492781265, 0.3836285050776127, -0.5341520898413468, 0.8743070879603212, -0.9213829643727035, 0.7887093226684331, -0.14082487402469562, -0.8997782975429914, -0.4104483982971375, 0.8082757598830611, -0.10458787789924338, -0.7889701315350895, -0.12372787765378927, 0.6089133962406675, -0.022764211135925295, -0.5650743880508087, 0.9032275361130169, -0.48881831209331866, 0.9266002694970268, 0.8927587204548453, 0.3269674965369962, 0.4376058643068039, -0.35952534058029234, 0.7937829227851448, 0.5419384273058376, -0.29640942072627136, -0.18280001221809553, 0.17386626552882561, -0.6578274309494276, -0.9322898194535861, 0.10467066314794704, -0.2066688761159398, -0.5774981940423588, -0.8886296423919063, 0.6024705127064591, 0.8667148398507096, -0.9282188779619327, 0.568257784462964, 0.4825962166144979, -0.09608977064970965, 0.6123176790504221, 0.09929257735187595, -0.7361068522789497, -0.9349741075222542, 0.9205013983048269, -0.31756390862802525, -0.20640096604614377, 0.5271330744986971, 0.9541236024485376, 0.23578929067611476, 0.8589944996675923, -0.3014453457309335, 0.7365335311252953, -0.7401089942014751, 0.25012614893642254, -0.7587598537462231, 0.19752811946361382, 0.6218898307092947, 0.369629157076932, -0.04759320333611283, 0.11613292400162821, -0.03628184643329963, -0.5120787715650185, -0.8842401497364987, -0.4053446336654952, 0.5998147971057657, 0.1578001538095489, -0.061566436519885866, 0.1188115883483402, -0.6147100382595685, -0.5643587675569028, -0.2129795473744185, 0.545484741484094, -0.9989416439108186, 0.5760746655940724, -0.14945861138941044, -0.7136674010881768, 0.41616437172354576, 0.9638874291410483, -0.4335702432178737, 0.9416932191411309, 0.8567007946287951, 0.049716153340067355, 0.3863908237400915, -0.7744373185515989, 0.2917557765222971, 0.6784377486558711, -0.5509837126276376, 0.04482996909551071, -0.8147104760120962, -0.788167012282027, 0.056662967755559006, 0.4880783174867433, -0.5514969603591083, -0.7863032915013058, -0.40595041451482916, 0.014415039920386447, -0.03944691621227435, 0.9472360744626863, -0.1892120259668295, 0.020898928520225235, -0.48419030324090495, 0.3190842466915016, -0.3899844307696812, -0.7516350878192943, 0.5550502928788303, 0.7273858058525077, -0.20800782240974444, -0.38112428734453585, -0.363234723242455, 0.28598401534778684, -0.7528693783723109, 0.8603166708120554, 0.24495160573591676, -0.7843424636754887, -0.7093762184699137, 0.0322727647996449, 0.771698285392135, -0.31996572044427624], [-0.4468601150196823, -0.33521885184201244, 0.5396046204349134, 0.8563958334571755, 0.8457818984381628, 0.02574283569903326, 0.009611455681510315, 0.33321743895216066, 0.42622439777432186, -0.08228693728959909, -0.850555618249885, 0.2954650362271031, -0.15424462501274852, -0.6568764968029815, -0.19225295504903417, 0.20231952022286326, -0.4744360717350901, 0.1719665235943788, -0.8358709639137675, -0.431689940844792, -0.4432445939917712, -0.039811108893632416, -0.1296673405170068, -0.8891325975833234, -0.04755449508614973, 0.9019610470807026, 0.20964489820210574, 0.5374705835432944, 0.9746263319477143, -0.13487501859355813, 0.4964811516487553, 0.7250008519559983, -0.4801246130304793, -0.08209736848261516, 0.30449693308597975, -0.746935938629809, -0.929960890748538, 0.5166822579688803, -0.012221675296978879, -0.07474149961459375, 0.8447788718928378, 0.7752771803300728, -0.05827331185883163, -0.32776002391659603, -0.2067485515419069, -0.594368119183952, 0.7668030844724718, 0.4013636446102533, 0.1466093285463907, -0.9603786939630284, 0.005299027087077512, 0.5704275630648343, 0.7215510922237351, 0.7769831952766098, -0.6494247324045357, -0.941459883561141, -0.8956712863265973, -0.5377883793530776, -0.8756710836498975, 0.8802949399352606, 0.43656289662684317, -0.6427623192002166, 0.031293510370344446, -0.9080048101093421, -0.2876699413459928, 0.3488780641817207, 0.3817698898020857, 0.7715789448211983, 0.45470098936246006, -0.5599632994452397, -0.05487543178439343, -0.9140703467901962, 0.16961315346598244, 0.6577336211821356, 0.4033225235326757, 0.14460622976758258, 0.27680150285746163, -0.5253289458878317, -0.9136295921289617, -0.6176754643017573, -0.1984929172899671, 0.6346739809449735, -0.2719577919538966, -0.43556169453902516, -0.29069446216304173, 0.5258583166911353, 0.7481127975730805, 0.25895093475430314, 0.8039458269147487, 0.17347780369858545, 0.3996408519852258, 0.7424583931711712, -0.9755414219101997, -0.5858805483578367, -0.03337294498013851, -0.11109780998519919, -0.9156231002454612, -0.03884335893477401, 0.043483303279260345, 0.4512763632478478, -0.4425731210315623, -0.9382858517916739, 0.6316007559498289, -0.38918401291255533, 0.41622642197015375, 0.8027744979882683, 0.8951634688803506, 0.9518861751768447, -0.0021136251974508474, 0.46331224397940995, 0.15618692596902756, -0.1296544743643638, 0.001355776650694248, 0.41110045474960244, -0.535898783232742, 0.66942527420929, 0.43569019069206, -0.12424740507934566, -0.4202797281105395, 1.004213606172082, 0.6482654188517805, -0.592495727939215, 0.9652030610494418, -0.11161302808171558, 1.0094751297232212, -0.20863711767849433, -0.5643377559358252, 0.8757672959100047], [-0.647873113216904, 0.24244722163447885, 0.15744068524824806, 0.3562324420235836, -0.8860891351318764, 0.9145363170489349, -0.5515100589225764, 0.40178029055083947, -0.1524304136972017, 0.16909141180829462, 0.02421561513606523, 0.5357646803824712, -0.34593206812600935, 0.35727294323368053, -0.5556299258536604, 0.296367963036631, -0.19507072163135042, 0.4178784621289095, -0.922723598640825, 0.11636715339389365, 0.2275347072091181, -0.1341315711310892, 0.31620171843116357, -0.3336945950962247, -0.6139698551963759, 0.571163676632609, -0.502173416900165, -0.5787231613960611, -0.7372946101097588, 0.3330345500456423, 0.4408555845288723, 0.47002560673224425, -0.25636943477182866, 0.48310865419251653, 0.47598804514213494, 0.8834788511200736, 0.17878664649049922, -0.5592031460840905, -0.5986394469120264, -0.4768246707399625, -0.41802214773593194, -0.7422757353916762, 0.4510753222840718, 0.23916207324939007, 0.9517261289560233, -0.6567434127059013, 0.3877331001185563, 0.5895605042186114, 0.5054572990454592, 0.3579361772469758, -0.7125020699511154, 0.6338891254556419, -0.6161363134759902, 0.4486837970029696, -0.8789363698592352, 0.7294276628955385, 0.5964622231222664, -0.8994141733622194, -0.36819707569611226, 0.9742337326673238, -0.9245687016328402, 0.4142790357788027, 0.2024406636398326, 0.6631883058185613, -0.8322669148814037, -0.4434657019657232, 0.25213410244493195, 0.8906257136250452, -0.4398343636930621, -0.25528223176246256, -0.06388697873079946, -0.6149121935224052, 0.2699728651200592, 0.1834491041409513, 0.6135713547554179, -0.19260337474622102, 0.4103380562649112, -0.8251626768133189, 0.8885621990847248, 0.7571536493216553, -0.27032140546979033, -0.46528667950873515, -0.753139857036811, -0.3417364784479432, -0.798085840864039, 0.07026618745679507, -0.503315214589549, -0.40153883748113456, -0.9519341834402669, -0.2107340150481338, 0.8116148637618199, 0.3743635000767501, -0.48726511028772146, 0.6013978786396972, 0.64711187306559, -0.372064405925658, -0.4083880812815133, -0.42874236856987075, 0.5772568022620782, 0.27716278878012796, -0.796944797853321, -0.221302965011269, -0.8561154692952492, -0.5321636790570429, 0.32154259886961656, -0.5646623621050489, -0.9255814937791693, 0.614981181672293, 0.25090081449273055, 0.20097736848860803, -0.0971411358523394, -0.846355806122613, 0.1271191362259333, -0.15276456565315377, 0.19938061935862092, -0.5714051820160349, -0.32208021247789415, 0.8115007797030293, -0.4714871709422368, -0.8908067413727612, -0.1191540059034686, 0.7702171233619106, -0.26241409776146346, -0.6827484181947769, -0.31555496482978457, 0.3876721427215944, 0.9839643604083261, -0.07567775641558044], [0.9509614527166566, 0.23570655922306763, 0.28659688206402323, -0.6812497934774893, 0.4881787686757934, 0.32664330064547625, -0.697456624675785, 0.4948856107523834, 0.7740117567644781, -0.49650317634776436, -0.8213053698491535, 0.49077114451707066, 0.14812272951587602, 0.18026685139567195, 0.4894323969242232, 0.07785452320001797, 0.00910104482274402, 0.1254233587404357, 0.29906814708924456, -0.3836316366938031, 0.9379105342175618, -0.6034926703343181, -0.47562294029140045, -0.759922832253074, -0.01903185043805844, -0.8674041468581142, 0.09966077761827451, 0.8746266849476028, -0.1861429523447659, -0.8189693428320319, -0.07094355106318496, -0.12936492719854717, 0.6592438454136105, 0.7482821083167434, 0.35589632146626105, -0.37359555054077664, 0.7822274270988835, 0.11928917347544332, 0.10991257009921333, -0.56214359007648, 0.3081095128589224, -0.5099279230791808, 0.36267996302818756, -0.9232369504744997, 0.6735705239055818, -0.81770437712034, 0.5369473861471361, -0.41515060417093563, -0.8059919507452573, -0.0638744297474042, 0.02643837899301945, -0.5483300401715718, 0.6849237915577812, -0.36652891159315154, 0.11750704154652883, -1.0011450064472853, -0.46024843192389325, -0.20149122309079215, -0.851953323541924, -0.5314018312991484, 0.8489063833827977, 0.7257002508468591, -0.6708685418545779, 0.4363626012301462, -0.1642396045800012, 0.3756736417632274, 0.9151548789020542, -0.5415758434343599, -0.4172029951161156, 0.5509410628697332, -0.22508940139515615, -0.7497100111313352, 0.7572806895634615, -0.3687261438373423, 0.42649658348127084, -0.3625343236312989, 0.9705995701311886, -0.5622441573466523, 0.3166189661359138, 0.8928998055658964, -0.605815119172161, -0.2353237099732908, -0.15774926202505338, 0.009653967736649107, 0.1826238863862267, 0.8946731684171347, -0.03328117226274728, -0.9319917358920176, 0.41555344206766964, 0.24824549635495013, -0.6575477445092055, 0.3310624044014673, -0.6961252185777023, -0.23292647174625625, -0.48115521047203397, 0.5278772441542219, -0.8054123044914278, -0.1941637651456514, -0.6357149231305133, -0.21380536298278235, -0.24181908036915634, -0.05969500735069585, -0.06998053519359526, -1.0543698015145189, -0.2383688834240525, 0.7637172395128262, -0.22219915747942956, 0.9724806564220737, -0.06004685105454663, 0.5555417941721172, 0.4298868102272412, 0.775080259226082, 0.8934172432057801, -0.45023268456103005, -0.5948986975160715, -0.7875693642753749, -0.6780841466290722, 0.5224078636187063, -0.7421408592713868, -0.30273121944649667, -0.31218996250076925, 0.6159284882566441, 0.8409983674300621, 0.6041361521388915, 0.6324929501922146, 0.928140607241766, 0.10867804644100319, -0.5546249104680504], [-0.22303277625156323, 0.7599462563015374, 0.61077094271406, 0.7461109038062534, -0.6606221470266577, 0.7605261340221857, 0.8218462639806916, -0.23140317364019167, -0.7838435576105471, 0.696390975156885, -0.07272978805945302, -0.3788838248408401, 0.5303362766879571, -0.6889121562982948, 0.5624582236076932, -0.8326305053850479, 0.06418754496447872, 0.22128647196878612, 0.017238058147239974, 0.40744983542258373, -0.04827749976909174, -0.657473502294538, -0.9124840273147007, 0.775864161539029, -0.4259610802599718, -1.020501118210775, 0.784246612548699, -0.8092445945857285, -0.8334185235686967, 0.10492362988261185, 0.9658766662050668, 0.9378810924253129, 0.358738670833059, -0.6502127274528818, 0.07766250645540106, 0.01967192987906301, 0.5701438284244315, 0.05545594564055323, -0.6322864239163638, 0.7654998965496727, 0.6752435952247079, -0.9677274376492279, -0.015186044738586297, 0.06304878243347556, 0.39980581398361353, 0.6175440226449767, 0.2968273459452872, -0.3873159714020462, 0.24648119449443825, 0.3938138961334039, 0.8934767504558849, 0.2787070460707408, -0.29772884794834736, -0.530969888704281, 0.8021220901676561, -0.12174098571687735, 0.6363553192331226, 0.34391178272971845, -0.5070816117475847, -0.6133406934880313, 0.6462588488166625, 0.034867606695419384, -0.9210985691896072, -0.6664842286767191, -0.6533084992896445, 0.8989250431350679, 0.4390442519894645, 0.9394809638809758, -0.07795072282643588, -0.8781755846532293, -0.6182605249315264, -0.9411385004643817, 0.3733171952483104, -0.3798037417377855, 0.5413967249189404, 0.03747054646816851, 0.6674947145699834, 0.8194425337450804, -0.050529603953312074, 0.10574442670589107, -0.5647874528626791, 0.017331870441036987, -0.5774490753374674, -0.18659959978252333, 0.4528744085689346, -0.9309681592622989, -0.9123667496083209, 0.46635075489309324, 0.8005465655455342, -0.24384502548850603, 0.1727928469686638, 0.9579555855492755, 0.34748979004724356, 0.4658700884536844, -0.6295881109203791, -0.535512114912621, 0.039047787085918925, -0.20915507938090883, 0.9441667482476822, -0.3601269025279436, -0.7993440311791773, 0.5310783878856632, 0.7044051026817796, -0.9014028616848963, 0.8252373967000175, 0.16574488813871158, 0.5161006003696263, 0.8438299262250795, -0.14230199405754584, 0.05290387495847981, -0.36904723639745757, -0.616631149717022, -0.033866107588137434, -0.9056495935488067, 0.7979253894680151, -0.7577503073465867, 0.041974547718606516, 0.693637764459685, -0.7462364873942907, 0.6035878619441666, -0.46833134883600785, -0.888497532543368, 0.9767563560470213, -0.32513247619894003, -0.6218442781268462, 0.5906416076768678, -0.7498132956021386, 0.14778373678923798], [-0.582683342382805, 0.8192316924967389, 0.974356526963809, -0.5459889557777089, 0.16126138977327797, -0.08843027006545293, -0.7458140758407448, -0.4552198114926473, 0.9351311540054917, -0.27986244993431436, -0.19046628973127178, -0.5606484649591125, 0.5158415449719929, 0.7636392584177315, -0.8538645608444939, 0.43264501319902265, -0.220010793699352, -0.6571975642769784, -0.518050542819088, -0.973175732565292, -0.9614301482528589, 0.2967516832227388, -0.5802670026450351, -0.07322149409513258, -0.5280637014615035, 0.6405305302873029, 0.6167181383892106, 0.12196221418524676, 0.8958058952526844, 0.7263215545785303, -0.9112578850767363, 0.21643705022528725, -0.3998763805252647, -0.9548887398225457, 0.5890228508602434, -0.708426034525019, 0.7897152112985739, 0.062128892083569864, 0.023861089829035547, -0.38534417474947147, 0.11066522348669344, -0.10597596179406346, 0.6730521958004464, 0.393080224766076, -0.4618138016494793, 0.8881371278288885, 0.12278351148531316, 0.7096760701541067, -0.618251396955097, -0.8287022866306211, 0.6899449180003567, -0.9171600299202864, -0.07103230162114384, -0.05539674343394126, -0.5744437643344147, -0.26652304797358223, -0.2964192074418544, -0.652170117284048, 0.44135344276406685, -0.5129782663376206, -0.9545831351501392, 0.41955187800411575, 0.2452237811985316, -0.18441306423744067, -0.44906849576593416, 0.5326286267645741, -0.047855469087747106, 0.26137446843460327, 0.17443710163638756, -0.6252295274258385, -0.40995465309474316, 0.09903087815206493, -0.7865113408620228, -0.26363140109286437, 0.45877266804418737, -0.6259209117743816, -0.5384924994725206, 0.6202458957647536, -0.3525978538961334, 0.6593635899518228, 0.06293569611977314, -0.35929550915402414, 0.1160999481995057, -0.6042994198566523, -0.9531052249364762, 0.7620221037887004, 0.02302406778205574, -0.5774794900735445, -0.13258134797392424, 0.6339960160823596, -0.011555404945683845, -0.7152628601680349, -0.33027187929418655, -0.04956440778320115, 0.20200539595031136, 0.9158386792096985, 0.8702728424608531, 0.5548970930403253, 0.5694414662886159, 0.5297565761457941, 0.025346335873517742, -0.7410872841491859, 0.10167036905053047, -0.8970709910380574, -0.5333024934498102, 0.34324589432179897, -0.952403164684129, 0.5729064110889968, -0.9591582258862984, -0.9287843382573251, -0.32618620185839137, -0.6153839546903341, 0.5321652304520998, -0.801913339884671, -0.158736748753237, -0.010325107389675334, -0.3849333695939267, -0.9071103323478981, 0.48909732454029003, -0.79598785685198, 0.9709836760585937, -0.261785826181972, -0.5018857242355893, 0.1714439103970002, 0.5900383007697584, 0.9715456811880145, 0.8259992590779004, -0.3360059863481354], [0.31296874850428386, 0.3254875958418289, 0.5013872380481709, -0.531472742073106, -0.897481681215276, -0.2084946580455917, -0.8854316339400418, -0.8059052059332037, 0.6817956220850728, 0.82975664117773, -1.0020571163836118, -0.4729896706457657, 0.5625869208811786, 0.47422597138087463, -0.9901233273595765, -0.9595632110508385, -0.6351657589449935, 0.3444442555465973, 0.14631973570691637, -0.17534222050621545, -0.08812337567906602, 0.2773228684883461, -0.8977555021912229, -0.17458739336226634, -0.5110563849385823, -0.7620491999338257, 0.11704439024197864, 0.10916930144148168, -0.45317680130694243, -0.7736099257981063, -0.6863320503571012, -0.6804458382256585, -1.0134264289228414, -0.549331800366587, 0.049763474074186034, -0.039485530025232835, -0.15813652868406183, 0.6132215052316863, -0.4629421889261423, 0.5425930208941043, -0.5359469865198357, 0.32020018573419423, 0.03420576320521599, 0.24984541243072034, 0.6978900714865375, 0.7059085078106843, 0.37636754233965175, 0.14709647423691674, 0.2360442464337531, -0.6507833113659097, 0.924262779384083, -0.17699633117997407, 0.07015062340047988, 0.23366335632726382, -0.8727546551535077, -0.5907345922101014, -0.5520192580449644, -0.3563901111369858, 0.14656956190008716, -0.9201961346347408, -0.1369862995680171, -0.5719938448269379, 0.8610617760622528, -0.6428225749326812, 0.7759968678039254, -0.32192899889634946, -0.2529550543902361, 0.5293280370741315, -0.18307534997660338, 0.42000623509032464, -0.06742942297115263, 0.5937914357995642, -0.6179550258374212, -0.15378340990115197, 0.7593106022974924, 0.07165742003432043, 0.008340553608371168, -0.6333619088869201, -0.12192208735044074, 0.21566301861569406, 0.2295699059903438, 0.45809854753882034, -0.27969354579402345, -0.7382725585835823, 0.3994378215731269, 0.7104799775212856, -0.6677407189918337, -0.6635460887573881, 0.28604221164675564, -0.48779833591397054, -0.559190988874014, -0.2530243941588548, 0.22776343212307126, -0.9072170301628439, 0.5932105693782616, -0.032332452193435814, -0.024733198162170907, -0.20860214748741926, -0.7935371596059864, 0.9958710723200891, -0.900653430216214, -0.5684905832219581, -0.540413218016353, 0.5280051243260878, -0.3573300704098866, 0.6817074028489043, 0.2810775779524504, 0.7468942193479298, -0.09409326997567112, -0.08227263391951212, -0.9935943034109909, 0.6885938948266458, 0.32610361060889825, 0.893711590770554, 0.1475485420375968, 0.536795467646442, 0.7677896111749765, 0.21820882172562284, 0.706714264606042, 0.31171825629711164, 0.983024297121713, 0.23508374454893083, -0.36002042074513185, -0.6826783663031363, 0.5249404409787388, -0.541524679434409, 0.035442217741581995, 0.27972381324739515], [-0.9888901883093589, 0.971796486052695, -0.6294336242276689, -0.45019124282562717, 0.13575308683299425, 0.6246060561071735, -0.5975190837865937, 0.4518108348433641, -0.12638158653646403, -0.608787200473714, -0.2638595482990191, -0.9904825738266999, 0.4619305854566933, -0.7055524921635201, 0.29544091761386376, -0.43491425710249537, 0.5929183858434707, 0.5292393310371452, 0.864979510085045, -0.8425811123079633, -0.7423031372066933, 0.760945078511953, -0.8848243299006314, -0.6449150845535754, 0.9381336826682334, -0.9527026356624395, -0.44489520931718435, -0.5744205771603711, -0.6403516352583468, -0.5203564418848038, -0.7408590095809247, -0.8225921291576868, -0.4091542128895449, -0.16611619836029615, -0.17091669678556545, 0.7729859898059847, -0.6999236385068812, -0.5781155905252899, 0.8456884371287615, 0.006108164592391357, 0.28629374704338234, 0.1360436154357389, 0.04510652338253409, -0.4752677508795907, -0.7156600841279805, 0.3157840552956901, -0.6046244145386559, 0.9597680659795387, -0.38473010150483117, -0.6993650282822246, -0.25339389226447634, -0.7672791844232748, -0.8616007313310465, -0.18133071142960427, -0.638070438324906, 0.7759710581398521, 0.3425930886351555, -0.8440376274202241, -0.021036573843636, 0.3499927389875534, 0.04668707450214426, 0.6379210986933764, -0.3611304112550382, 0.9111647402609002, 0.20052846610889458, 0.6448610522377899, 0.1725095651105665, 0.09374528530278184, -0.1091622730950564, -0.8198002900559002, -0.48842993990231237, -0.3744042157985536, 0.8830258056568201, 0.6505972453677162, -0.8995326061768767, 0.8049084446004833, -0.6346523292815073, -0.2101097626502755, 0.5306948666236395, 0.9038418650573586, -0.6169537846243963, -0.9123962539517292, -0.9427874081365974, 0.1895181981835135, 0.9683948779410405, -0.4804494896127937, 0.6610802089482044, 0.7397251801985387, -0.6835834572060722, -0.9589486794743911, -0.8335930316566988, -0.06943882165678134, -0.2966692403526934, 0.417756591966155, 0.07168221757167127, 0.9141346639129421, 0.5077119187584715, 0.8816573130733316, -0.7596760886100958, 0.3794592776438695, -0.5479689323494384, -0.9280063116009788, -0.6572107924189822, -0.9414135076858272, -0.4005871953558118, -0.14173002337830326, -0.2642266650399453, 0.1747487753125899, 0.7099665736848036, -0.11712110090148697, 0.8883649871115736, -0.9819704238396928, 0.187083433197063, 0.3619705050469919, 0.4407301532558527, -0.07457225090830495, -0.7549640080200655, 0.6917304398381555, -0.45167799695819566, -0.9670493207028155, 0.9256860997660628, 0.9492584782056536, -0.39683894001691267, 0.7173080711664352, -0.20418043540778377, 0.8257167102369867, -0.13423234099271153, 0.14978666987821126], [-0.20426246706890475, 0.048904604418093925, -0.026468651683618012, 0.8534207584898561, -0.5118426165831427, 0.024462679818993888, -0.1389225577369413, -0.7667135650079046, 0.8177961862423196, 0.449500217750848, -0.9861045738045102, 0.11369302918268896, -0.2272387432525295, 0.2957563559610413, -0.31469937798213027, 0.032495073633633895, -0.30328075574822316, 0.17756539225666967, -0.5744221515962664, -0.8930676576814733, 0.11198076680596757, -0.9215604793058556, 0.8187738652525257, 0.4655095690521269, -0.6598561244005177, -0.694871958174851, 0.26817130218375834, 0.3890563159266562, -0.07562930650532314, 0.4271131664888035, -0.32280480690776625, 0.18291564936587787, 0.3194703641428103, 0.7604237729313179, 0.3048573889646109, -0.7398211304613549, 0.8792658716405578, -0.5540677031483581, 0.18824049021686237, 0.9415844930274889, 0.8304677424062854, 0.603759843744179, -0.748520316918728, 0.24493344796080338, -0.25253745478367146, 0.18800194028051725, 0.08779303285866438, -0.5960194450807594, -0.20920490254498503, 0.12318591629686682, 0.27780437870969354, -0.18708170828831483, 0.6175106512368117, 0.8495990625309483, -0.13682994991161485, -0.15635929757357864, 0.4481376959278001, -0.962996225670737, -0.4227775571841908, -0.5548798042499395, 0.3391077938036843, 0.6895681386135419, -0.40433902923669285, 0.1409230805215757, 0.8177558159398292, -0.14411699124295518, 0.6246570957427997, 0.5139649232011411, 0.3243747154674209, -0.878497982067371, -0.8759485811851092, -0.8183223919680928, -0.5402094807827349, 0.9695832337326822, -0.7809733207056448, 0.02069617792196273, 0.7806393014484924, 0.3754077508498306, 0.3805866722734841, 0.0357917963374709, -0.5617182837816581, 0.2543149168979215, 0.20993987953129306, -0.6193695557646358, -0.19140391914891275, 0.7665207986208896, 0.05797245514038747, -0.5474493354526453, 0.7207418984222893, -0.7947887768249593, -0.48701821537397444, -0.5832863810319505, -0.22063517224263585, -0.09984918934837905, -0.22365073126513968, 0.6317594417637129, 0.4523509771619897, -0.17668988175031797, 0.4342806973532461, -0.8167235509605917, 0.6628231005617594, 0.840844556158473, -0.33225506443647235, -0.5090468042855805, 0.5701280815911207, -0.09146434420618149, 0.6933483893521666, 0.1996007818086663, 0.27986040392618944, -0.47179960063036375, 0.8300581355267345, -0.7771984099366329, -0.3809731397526383, -0.2828929491374892, -0.5518016084003935, 0.3897322536630131, 0.770420669464893, 0.5702210711855266, -0.26011552303136254, 0.6272128204735054, 0.2873395744260753, 0.6501275533898117, -0.192088760814659, 0.8944422020569581, 0.4271331793825068, 0.786423585388247, -0.9414101675313311, -0.45826838865546066], [0.4941958029898474, 0.5433626484892777, 0.4879179110191562, -0.04452871789188073, -0.00439672307053739, 0.4368198258348505, 0.7376698965932804, 0.21464511471453315, 0.970115199234346, 0.42216506282668653, -0.18506288963799256, -0.1605230080779185, 0.7518135739448725, -0.42838482598918926, 0.4659136996106322, 0.11637617575563336, -0.45096027429446006, -0.11778054859240819, -0.5207238458065341, -0.22193221876496388, -0.16145829548672136, -0.007993494799584739, 0.6363443677355898, -1.0067995147366444, -0.5386760357652496, -0.8174707955641491, 0.6223830505216383, 0.957760388311454, -0.19839320611725983, -0.9578781060923339, 0.028624168717728233, 0.562337893636433, 0.10989851700511875, 0.22256781228108527, 0.15614304488666206, 0.8670260408904565, -0.5145538132967197, 0.47322151327770756, -0.7568565255997041, 0.5594492226929908, 0.8205814937062847, 0.2869352187740671, -1.0197700517843986, -0.5819801398245306, -0.25688239399795254, 0.24463356312955567, -0.649277972511752, 0.2661226482219283, -0.2572471689097513, 0.6166363325616632, 0.6165081853891549, 0.9685119952896835, 0.5398756269151695, -0.11962648297241643, 0.5492731960609113, -0.8342724995583382, 0.06406124659753092, -0.18840360161396652, 0.2747161852767877, 0.967637397448736, -0.7490669972927644, 0.3655635209284581, 0.4738196505399146, -0.6415713977915024, -0.4327641494878378, -0.8955744498648398, -0.05932243876112938, 0.5921254535793365, -0.6813336854201583, 0.7925640757743244, -0.31510972919318675, -0.670379067401591, -0.3626475413593946, -0.3644539235842272, -0.16446987638113442, -0.6299364322478725, 0.4351231272290422, 0.02812240619864601, -0.6057312516311772, 0.47154383121020377, 0.15516002442375518, -0.9034205220741129, -0.6902655352772853, -0.21401956778167108, 0.28928463079225175, -0.48260023014622033, -0.8194335041836913, -0.2534509278434254, 0.5857155479011086, 0.7656129233719012, 0.3577165153389833, -0.4287883535383442, 0.606354405013797, 0.8611541847988913, 0.20652892305616202, -0.8161852244113421, 0.9817133984666839, -0.17054570285335816, -0.04495880748505548, 0.1403643316758393, 0.3921199196608031, -0.6350320498768336, -0.6568925119911959, 0.20127050979860672, 0.7960400786490882, 0.9263173220416601, -0.2817016524813611, -0.3055540127537898, 1.0141976260476253, 0.6635511115998494, 0.7174435152998374, 0.7572150383414036, -0.5917465655126817, -0.24889148704547903, -0.12096791267651456, 0.6260249364629475, -0.8097638202889543, 0.5033871652289748, 0.03236519867393154, -0.7973777426069816, 0.60458382998356, 0.8166349864657494, 0.6074312052526982, 0.4235832165163501, 0.15369556585023458, -0.2645119981661835, 0.06833536553662448, 0.24692769469446313], [0.43614510406190793, 0.007061438336891406, 0.11590322471343827, -0.8466982492215247, -0.8498831405650797, 0.3877024382838798, -0.7670111631225037, -0.4081106354936742, -0.11735150769601069, -0.5616838206348144, -0.8042292079014557, 0.7287440549263088, -0.6289609126288994, -0.17418641634535992, 0.07001655624734907, -0.8881165661177014, -0.7140793253854105, -0.9407687959363525, 0.24158188477920628, 0.0951592009497007, 0.3350182669376555, -0.0910306241147743, 0.20040061090545458, 0.6716189739875827, -0.49908938042249407, 0.628139174442646, -0.9786777223443351, 0.1495561449661848, -0.9294299009960423, 0.08612278978512558, 0.21330769191903481, -0.4828593161866255, -1.0030285037032671, -0.443827980954604, 0.4566902959361221, 0.6247974957811511, 0.7632405846699182, -0.24901813409592943, 0.05564904076468581, -0.1704590964516702, 0.6662857332661541, 0.28184865986726937, 0.7259386478762341, 0.9191168863632326, -0.45157178327468034, -0.7549836596970689, -1.0111586935080306, 0.5737814304530346, 0.7475380213562333, -0.6381521545293419, 0.8889406245535365, -0.8202023173764336, -0.6702171792111106, 0.5772318441495426, 0.6635045379285004, -0.8544090693974677, 0.31947367159994344, -0.8936662787482528, -0.22252831609330112, -0.11520788436663129, -0.21369860597262388, 0.365117683217664, -0.2679268111459929, -0.1371205586845966, -0.4158664077382649, -0.6673047763861295, 0.33849821273728237, 0.5318319775028725, -0.3227921055595097, -0.538264484381346, -0.1412279718801676, -0.23048383246154497, -0.21290341665613002, -0.2212483369190795, -0.47104622807546437, -0.7445084823853763, 0.9659658598362898, -0.16106877690496235, 0.507025852581066, -0.4146263672181171, -0.8029296944669647, -0.7329511056209451, -0.015283415320124526, 0.1563331509836706, -0.7315605360147799, -0.24493331866795054, -0.4195295994576872, -0.9018314841008925, -0.5514987286730287, 0.42536163331230703, 0.02254202105908001, -0.45870041930021227, -0.8994289867250707, -0.7757288634141901, 0.16604863943761963, 0.1504061268847501, 0.11052084335421851, 0.032757208424575524, 0.7671559163158037, 0.6746326284091299, -0.20124833416401927, -0.10894205925721542, -0.7725528580385359, -0.8214758606008095, 0.18205192024030029, 0.5639243348073668, 0.5345409224914762, -0.146648141347417, -0.8061066195321797, -0.9043277182549707, 0.6013808461386251, -0.10253985080693936, 0.9178617988979179, -0.19523260950493415, -0.719240037764946, 0.4725282240069571, 0.9810444636850953, -0.2905816594649003, 0.838716664348694, -0.12109392424174978, -0.3377647401636331, 0.8360427878861728, 0.8426592640032962, 0.4330126444875864, 0.6966531304889791, -0.9676474114265423, -0.4754834954074716, -0.7360260367784598], [-0.06785308189667494, -0.6921654506054021, -0.08356552017091741, 0.6896717539866439, 0.9381527250321868, -0.9100797483044819, 0.5386483590072204, -0.4371592184490968, 0.30277044159408045, 0.34805522422302115, -0.5237470197030929, -0.10745983639090881, -0.650882299449466, -0.5498325218678916, -0.9313238727451889, -1.0124024390330548, -0.12667409611430686, 0.2040736145671042, 0.8861974807240915, -0.3761253508168975, 0.5428004286542641, 0.8911430220326704, -0.640981001993115, 0.5282516987336873, 0.7876184393815753, -0.2874153968501696, 0.08415129471092075, 0.7742341873170535, 0.8837626854835291, -0.17597789488298984, -0.6475108186054361, 0.2824647571689158, 0.11086367152694439, -0.9424896792067047, 0.6216584631663744, 0.36079023126481996, 0.8400934333619338, 0.8236582532765451, -0.4454051465069974, 0.8287843020865697, -0.8794570575208772, 0.6081416087139958, -0.5395371721214975, -0.330858669805914, -0.26877173551866396, 0.2703410615275027, 0.7958669708367254, 0.5511739270185432, -0.21013179627254266, -0.18912029984065515, -0.5252335430039788, -0.011859014744084725, 0.43557764666011134, 0.848513690664308, -0.25547818377641696, 0.40255371067977735, 0.9308748022519898, -0.5488692396563801, -0.8071539148852491, -0.41299508309285715, 0.6714119527066404, -0.47142368547130814, -0.1548374611842589, -0.3227076418304009, -0.9045045621455835, -0.22726218527522266, 0.8344357168833262, -0.5652927167802632, 0.12723230707798885, 0.4818335304092049, -0.40656762810069286, 0.08617846821422187, -0.18969037924247942, -0.6253787112237235, -0.25853966605653134, -0.30802699952395923, -0.1976368094491635, 0.2855183027311274, -0.10816715831855328, 0.46208519215743515, -0.2584676305612505, -0.462530552429777, 0.040751213066999144, -0.7271046409194112, 0.3988471841359789, -0.9524461940986408, -0.5811810032509805, -0.46053833244045916, 0.597357491660944, 0.49752549297212173, 0.5767833738582168, -0.8337776118801807, -0.03780127864565652, -0.9403536894927444, -0.7116544864470997, -0.04978822423073585, -0.5159140726853357, 0.928572557407975, -0.03581027904973022, -0.2510883307014913, 0.7930384009980608, 0.5815128703424647, -0.9175075589850855, 0.09184506076505027, -0.7828044881536078, -0.3101550975599591, -0.8285995273626838, -0.3930531051717926, 0.6035804839348928, -0.44523382806202805, 0.8847731840643496, 0.26337489602871456, 0.4943533781960017, 0.26832172921986164, -0.4203073477577097, -0.39604826921515257, 0.14695601566856895, -0.5036157661937675, -0.12606053081565222, 0.7416380885361852, 0.6583115879266214, 0.8134811354368126, -0.06385576486552456, -0.849284685169853, 0.817638459435251, -0.4948232427639261, 0.35487894639843975, -0.9207949836545753], [0.34366297411927377, 0.8622325830781069, -0.2874295376973971, -0.6344173112443225, -0.9581634337705972, -0.9548843031066345, -0.8084860640052665, 0.3956294946469049, 0.810030802223135, 0.6811907906491167, 0.816868651319049, -0.7905829511863522, 0.755043579626263, 0.7933506177198716, -0.30618186262893565, 0.8853182417042222, 0.3584867109851358, 0.00978333517664018, 0.6947224705444517, 0.6870341019885686, -0.15478640125763202, -0.7724277883831505, 0.5639768996790178, -0.19698886823056405, 0.2220823286314575, -0.3104241640785743, 0.6748129485232089, -0.5752572383035283, 0.41619347064427525, 0.6897631076478291, -0.6844519691438408, 0.6524151683583717, -0.5094101685734366, 0.6796575975908496, -0.47583101840621667, 0.9746585390658928, 0.43839579242729326, 0.25745142586719716, -0.29249294728919684, -0.196622356221964, 0.2913786976794262, 0.29288470297674873, -0.6457516815296304, 0.7799460419863584, 0.1813358461794148, -0.5071825184931884, 0.9601613368952284, 0.5565604340582266, 0.6718130296486702, -0.6346335285767404, -0.031163640762429768, 0.43069226838818064, 0.330556619797126, -0.21564380647286693, 0.7116975074975267, 0.1853258418046382, 0.31509091582463694, -0.09032684101771515, 0.4089350901040906, 0.8899353820441117, -0.05833017608509468, -0.554568748284858, -0.39501258314257504, -0.041319984622058034, 0.6647429981978941, -0.6855236773904173, -0.671573224435654, 0.5188526563533542, 0.09182698500719519, 0.0009364027554619621, -0.002817276793510936, 0.7747876509081391, -0.3662451757688498, 0.6759950630839607, -0.6148239010467635, 0.3456748225296166, -0.9298202916605253, 0.7745318708130674, 0.4058209936806412, -0.25898159626267897, 0.16296750023368728, -0.7971075674711405, 0.3887260884754484, -0.6812185856192564, -0.1668481996775328, 0.19880294533919365, -0.03393777692523658, 0.5838604496728312, 0.9650335027182831, -0.28571912012095824, 0.7247102531910503, 0.5862545240282265, -0.03938895803400477, -0.8712889280414584, 0.32898352588171487, -0.3932473368173084, 0.045713987898532774, -0.10324690035474124, -0.49770975602925377, -0.07051600196617193, -0.9673333945017937, 0.6192020647025458, -0.3009271886688546, -0.15242761193861712, -0.3850001487473051, 0.812708884408386, 0.7356312962358387, 0.8450920850375593, 0.35310020849301754, -0.7328796236698054, -0.39997152628841287, -0.13578991346549504, 0.38818627164136993, -0.8984940699769359, 0.2961501675079563, -0.9664145051106166, 0.7104370840103815, -0.4277339898995534, 0.5645600587008558, 0.2204646205895526, -0.8890416602645694, 0.5205013221222072, 0.2949157379285151, -0.31177783375447193, -0.24909338138258658, -0.35495895883076767, 0.988562845229315, 0.2774379699494336], [-0.6931235931093016, 0.34856139591910534, 0.8208599276153971, -0.4314432603829066, -0.4164022974766727, 0.13822219058799387, -0.47827685502858897, -0.5803476285597376, -0.7369776294705457, -0.5556193907266268, -0.9175421370084113, -0.45865080564748173, 0.8131159683426245, -0.10757534770571957, 0.5901409102365985, 0.5669391920048721, -0.8944715827558932, -0.20950455715341706, -0.5909837834658717, -0.6598834965406402, 0.4294848564755615, 0.2710450519237237, 0.026725104306614067, -0.18743102329186287, -0.3678197278500903, 0.49895799676000596, 0.03368649868520227, -0.36958260736456716, -0.035848503983635954, 0.8562936233500275, -0.4777414695757245, -0.8571322334944851, -0.6184603146386112, 0.47878723353728514, -0.12755216908871791, -0.07817946193021906, 0.5034521127862572, 0.8916419862954366, -0.7573312204002658, 0.8027639011474181, -0.09094186428026702, 0.1209836936716231, -0.2031229034989613, -0.47255669923274624, -0.5004849210664777, -0.8365311623016607, 0.6224347227026003, 0.005410713676615275, -0.6557645928678972, 0.07991044619668178, -0.1408627937754119, -0.6376226361118771, -0.5253030742052242, -0.7570290728804195, 0.706333185433477, -0.05389961599539191, -0.4062861252030703, 0.16531119523570004, -0.3635202141375166, -0.8730424420807232, -0.8290442364631389, -0.7607314125382771, 0.3828236454696461, 0.6789924108046022, 0.019773501588185402, 0.7630652760308305, -0.9666727590563894, -0.2002662699460729, -0.09056404621745026, -0.8171998130675187, 0.8072938745128044, 0.6585526843418561, 0.1376536530891195, -0.5080471933971226, 0.5977792536382802, 0.31638675760419227, -0.5472805748010396, 0.17709018060580176, 0.03828181134953734, -0.483197036448412, 0.8734969970746994, 0.23023005864290297, 0.5542660539479406, -0.10776984269008047, 0.3330501839771325, -0.1823342497174117, 0.045740201034857556, -0.7042455922388546, -0.16392744723368252, 0.2923945003519358, -0.09533726996790154, -0.012327284169187014, -0.23784008234073672, 0.38245151503596775, 0.6301657991441297, 0.6078754535461012, 0.44468311336727984, -0.9097217422529186, 0.6650854888026922, -0.880992387244273, -0.48546605048152375, 0.9092637324398554, 0.7448830534318045, 0.22514660982798035, -0.12539123629029378, -0.8345172795764223, -0.5432168920870937, 0.6696830009132543, 0.6940319864510065, -0.79258285782582, -0.34521673992344304, -0.10728272315387578, -0.920252747065764, -0.9840528081093312, 0.05071218151450803, 0.9120243628787637, -0.5884128399147462, 0.39589793764358994, -0.6419954882010946, 0.37119778135807924, 0.9447180028473804, 0.4976614525958623, 0.07403065456394119, -0.773263996300871, -0.05839756331833375, -0.4556679991568207, 0.94740176244112, -0.9129870014188481], [-0.5705755173438383, 0.1793706110533159, 0.3547390675351862, -0.32493849080802684, -0.7490309451226806, -0.270992800879962, 0.5059786163425126, 0.17260599548135372, -0.3996268093588702, 0.7971359947367342, -0.022253264321622054, -0.6013320321192154, 0.7964420610471913, 0.37935359445731565, 0.868900682754749, 0.6566220925704827, -0.5766929322134845, -0.9486393033898296, -0.12569196997822396, -0.32013989024272155, 0.865349328385982, 0.16631341785994666, 0.2150973062767933, 0.17138253158019356, 0.1829449047410172, -0.84571511883634, -0.5434089889323691, -0.6170866826743199, -0.4046190360890281, 0.5317610812282978, 0.5036463981084887, -0.9450156591206733, -0.22997913946267012, 0.38998817881394143, -0.456373054963363, 0.7254986328900715, -0.5035575034653007, 0.9832705883362474, -0.08836208331604763, -0.5721382029622559, 0.7378120024089813, -0.989280152808037, 0.3857459479417891, -0.7704391678608292, -0.8535253355103111, 0.8702591627880019, 0.8155351742146698, -0.8713847537086621, 0.2069479844009814, 0.7024915121278335, -0.5620599651803467, -0.6523892045969576, -0.2219091862748822, -0.6562939388468069, 0.4029684027816898, -0.8184310722145232, 0.6776316518393366, 0.6395742891921294, 0.3036758577154966, -0.8261872870809969, 0.7349525844608007, 0.9005442105885834, -0.4173694979113278, 0.18252842816514875, -0.9005808650507137, 0.15738767632189396, 0.6649586858588794, -0.22496627788487883, 0.32888457921685776, -0.5742348964645815, -0.3219822742648668, -0.18844780904173875, 0.5896192405655021, 0.4318801527480677, 0.0960514121839055, -0.5765242512715938, -0.47537367351846027, 0.17386767818459783, -0.7628539022021383, -0.5678774984892332, 0.37616385394382346, 0.45256881898989476, -0.8108832242113614, 0.12256794697868607, -0.24708966087755013, -0.4302765005578032, -0.45024879061314604, -0.3734083011117957, -0.744516607937077, -0.0911542173395024, -0.4246058294502127, -0.3499480738568336, -0.4992978318654986, -0.10487934247343822, -0.4792346184248823, -0.027819588377988556, -0.5826795285728127, 0.06402058463964332, 0.6496553593001962, -0.5424195074048128, 0.07429004188569621, -0.5310547857186398, -0.7392139262075024, 0.11842289251296302, -0.02883715801871045, -0.07484735325497421, 0.11298689631842834, -0.5579372795328887, 0.982695763082781, 0.17761469354520054, -0.018220627124707553, 0.5243090202233546, 0.40747635196398474, -0.3031759832866683, 0.4046568065505338, 0.20182986004206344, -0.831547919631069, 0.4692541476333799, 0.15720684318802577, -0.5983530778943685, 0.23391357744898808, 0.77483863526765, 0.4742616886820331, -0.29513689406091226, -0.40361302203242466, 0.43694474644712833, -0.39389132988695313, 1.0130647266282788], [-0.5542111094857606, 0.939871748312793, 0.32491717840509843, -0.9355914821019407, 0.3779486956254961, -0.985565706326512, -0.5090795967887783, -0.08046157021407775, -0.7743019429956716, -0.12288533533712136, 0.8903899010660444, 0.06276802970217281, 0.6663947946091756, 0.673440695414196, -0.8369011621508207, -0.7346823517713952, 0.7487861123898406, -0.10211435042854827, -0.1946548126200843, 0.9992252464899843, -0.3067077300927344, -0.06295102899340597, -0.2525737576744653, 0.4700889788308928, 0.3694801546319555, -0.700683421487516, -0.6171413906329762, 0.22098896541569393, -0.9903604595668216, 0.5455288589231917, 0.3860651732740273, -0.2170100651397196, 0.2931294900977654, 0.7803695635153163, 0.09986589177210244, 0.5607398342450387, 0.3758483419320922, 0.7186068531102277, 0.20439935398192088, -0.5186388342894372, -0.5604778013329144, -0.2520390002288569, -1.0109635337665652, -0.13482722312073359, 0.533727489400301, -0.7725365942711284, 0.4604647213791373, -0.03878283889847056, -0.43236790079666937, -0.2690012080866153, 0.8573885951917747, -0.047292460526033385, 0.09260808391811493, -0.14908731860975874, -0.006280465354920767, -0.546864415422338, -0.9664611704290091, -0.33476259834363153, -0.6963748002090613, 0.8493422420499257, 0.5064979497170449, 0.2919721267562374, 0.37561474682351825, -0.211013423802904, 0.06649450584718868, 0.030931033384375133, -0.7289194463739342, 0.5891985406077447, 0.513677532783039, 0.5058116382383497, 0.8394321107186153, 0.7080576974539786, -0.5295762952825983, -0.9372125274519136, -0.7389960803494302, -0.7676123630558945, 0.8931102354322433, -0.02185754937489368, 0.24134749600560612, 0.3885808793002235, 0.616153629595648, -0.0260897713374033, 0.14562877243670586, 0.10482147510866185, 0.32210204323538455, 0.12712430237373215, 0.459482556288185, 0.6106058773907164, -0.04496937819741785, -0.9643944004590415, -0.6845875077069229, 0.18099413930929775, -0.9044446633320069, -0.5707791476125659, 0.6629655568904447, 0.7878397949551945, -0.9505859375723421, 0.06149088065666811, -0.26674896534889586, -0.7055967510074603, 0.05011198786917842, -0.8507322780977937, 0.8771360807472169, -0.5995159595268759, 0.6038459098690256, 0.4172682552048971, 0.9229604321177514, -0.9285473627624142, 0.34161243625113125, 0.9515306288389334, 0.22170230146048195, -0.6256827392181746, 0.6644260925513846, -0.769778955825476, -0.890484513399353, -0.7631478146072063, 0.08495278119074554, 0.48365572391350564, 0.26203435054918794, 0.1722468567678449, -0.5679963550246688, -0.1444984834076562, 0.4315531365914857, 0.6524834018836101, 0.10507621635857023, -0.36245729335246724, -0.46480990214568746, 0.3887245574210205], [0.8779429812728285, 0.2814594238244724, 0.17874700073419297, -0.19513441857224034, 0.10461615350630377, 0.26999609791295426, 0.6185574636408167, -0.47695185458968103, -0.003969944300384058, 0.384846842903832, 0.7150063145858199, -0.9462707014593045, -0.8358476025072551, 0.4191489055859523, -0.8112677327901868, 0.40548265600318645, 0.30089549248475744, -0.48843735335395677, 0.840591148549144, 0.617865573198019, 0.9831842209350323, -0.6610354197183196, 0.4650184342313092, 0.3280257887123171, 0.5924457758650961, -0.29909442284670046, -0.28324956994704953, 0.7056502133399685, -0.1403137385939188, -0.4194044578414921, 0.6816609648557608, -0.14059655256305342, 0.45420452385831545, 0.6083211054111309, -0.1755641897475083, -0.39705874805134, 0.10319778892420173, 0.20783225221850166, 0.5903613116265349, -0.763981202428819, -0.849683381725927, -0.18704373129689825, 0.5672064042856658, 0.282888567333174, -0.5061076461511834, -0.9194150943555892, 0.8952451607557425, 0.8467122588331835, -0.06290971180983804, 0.4713506541059636, -0.09610475934697366, -0.7818313696915811, 0.4500795343509459, 0.656866148023922, -0.795556218462193, -0.9324942344824386, 0.8410079708343977, -0.44503697018733224, 0.8394458534801844, -0.05822390575671607, 0.8083088915460722, -0.7895095617923986, -0.4066966106606995, -0.9341972151335317, 0.7947566614650292, -0.9559376201226746, 0.14745908947939043, 0.19676796949453332, 0.24123100543207573, -0.8508923077331207, 0.5454198326578008, 0.6990017641977746, 0.5759901714653117, 0.9696156466587416, 0.576862491225132, -0.6149675733039601, -0.9674914029118484, 0.6564917127169776, -0.13728514837040118, 0.6990842182113011, 0.4901789283870462, -0.6730097215747378, -0.08985689730468356, -0.09311524885304331, -0.07362719884376812, 0.08343861655409321, -0.9929355733813344, 0.412505514609292, 0.4716773030966721, -0.09801631074182443, -0.803337445954547, -0.5781512575907057, -0.7207984687883089, 0.5874013689902284, 0.7783349473160803, -0.9387096646520144, 0.38188532912442646, -0.8579735441961676, 0.7070112143083068, 0.12328024100487843, 0.38477856342914263, 0.8534958877988212, -0.35119372761146384, 0.34297459582035605, 0.28621475532922447, -0.24681473933318904, -0.99548931010003, -0.23625621782963638, 0.5848009207786571, -0.0382235315647943, -0.431982046524501, 0.5180900348853557, 0.4189729550198679, -0.07995381531052925, 0.6622691728366162, 0.6658646533018903, 0.03938945258514069, -0.9947119604303519, 0.10962107367367004, 0.45414754166520227, 0.24799762434081538, 0.9610075437375424, -0.6419026626790758, 0.24674010121564943, 0.43483222846905634, 0.5109444519000012, 0.7279597567955862, 0.5394485608003501], [-0.39102256916938705, 0.4071905629085495, -0.9527282316391898, -0.9250178753861984, 0.8646959411195811, -0.2079061312631063, -0.9411618404483779, -0.8335826577534146, -0.9718118252492595, 0.5316489385428111, -0.4627933302688982, -0.27117964001759737, 0.6762540142240061, 0.9548586728511097, 0.7010178363087111, -0.5495966437064538, -0.8255422257010073, 0.090129099129986, 0.12070222579978176, 0.9711218391530623, 0.7187767141311083, -0.754437978504831, -0.237749604694523, 0.01990826006265314, 0.6353643990548825, 0.14750305404118624, -0.5979324760267642, -0.7169874204040795, 0.6415630512442568, 0.3794487897550621, 0.7864252425291692, 0.8950064032201936, -0.944808868368442, -0.7143708014130391, 0.9113834031862954, -0.45331044546675237, 0.16478315105837943, -0.4014335214371221, -0.8703234284508324, -0.6601295477601249, -0.7787216383456248, -0.7424134395983761, 0.9491246910850963, -0.5487915241004464, 0.6680875873549286, 0.3225860042853539, -0.695437041026294, 0.16192795817453298, 0.9803074070641522, -0.35100048527314875, 0.3038983598757263, -0.7274853490839984, 0.006382221565602912, -0.9361186562886334, -0.1250211410070219, 0.8391138746059716, 0.046344544452535545, -0.9906280113423112, -0.7818795671283756, -0.9061399902560511, 0.5651455270527115, -1.0039699620704792, 0.8825689604628493, 0.9434728498845901, 0.9032190310641247, -0.047099434070132264, -0.8896822788704086, -0.7214977124627543, 0.9680481991234875, -0.3591769514406682, 0.6534201526227066, 0.9405473969856492, -0.9556487420318107, -0.22572969931752526, 0.7818391419760562, -0.13842659095884408, 0.5040778648832284, 0.3211946562219688, -0.5329755798689371, -0.25030681533920585, -0.5825566219879249, 0.0809378723295912, -0.6191208289485174, -0.6169090330647333, 0.3509448965099997, 0.14251352634020326, -0.653324760369932, -0.7269437882929758, 0.4656017223215284, 0.3560490418133158, -0.26967441663447866, -0.24572022486508077, 0.6820608674669795, -0.35095273267271687, -0.8969076920617393, -0.3776513313964045, 0.6023618841672529, 0.7041234134089239, -0.6281451284676199, -0.01401219991924348, -0.5424297234364635, 0.13186918090027588, -0.8975695546531678, -0.4504961317653073, 0.7832059989592653, -1.0048619534412095, -0.9685097445217397, 0.024507250646216096, 0.08820581808210262, -0.5375589375602294, 0.937847845213333, 0.47013272418093377, 0.3341876519075689, -0.20817802312228073, 0.7175930358993017, 0.9605898588318722, -0.6271716637428956, -0.49745846801816773, 0.8798428064740028, -0.392086602205086, -0.36568294813646435, -0.2711355813232101, -0.1294401095326839, 0.6023976487383939, 0.5805759980007636, -0.6673818086165192, 0.4656502415883311, 0.6983298954861036], [0.06223142097328609, 0.866632705657335, -0.3993099678178957, 0.6333712016394726, 0.7080737772130907, 0.5889125985223862, 0.16887251054670072, -0.765211022603102, -0.22359721130140356, 0.9379028575561552, 0.08506162243340121, 0.15653065885629494, -0.3166240678578428, -0.7911512805518087, -0.8345649978686878, -0.5475130276480619, 0.011708375159193912, 0.9389715817153624, -0.20249011201349496, 0.7430091140559788, -0.6887444493841468, -0.8658615114344759, -0.3852413464431203, -0.11410654760362461, -0.30828626421127714, 0.7793823897661575, 0.8934391342986913, -0.8380855426968483, 0.3168924666588417, -0.07402276159549757, -0.6190043842335267, -0.8491212275651112, -0.6897518666935855, 0.9069203017385773, 0.46712642876231114, 0.4520963318188048, -0.10596315613596181, 0.09588597316494618, 0.1996687587797712, -0.3220485671524896, -0.8344216546674785, -0.24762404064039759, 0.300826353407897, -0.9414241225365079, 0.27926363886516276, 0.08795053819697012, -0.6184491053747997, 0.9203799595431099, 0.9615165882728759, 0.9506556844799392, -0.4895750527859756, 0.26540332010564194, 0.11781933672131124, 0.0228896577318331, 0.1120889124600622, 0.37473601967765774, -0.7997573951394931, 0.6625125720067719, 0.6754620941035137, -0.36119970908341453, 0.20881676674651914, 0.552937792704134, 0.14236647677651382, 0.7912855733491698, 0.4306868000800721, 0.9296534342153492, 0.08477360022280325, -0.5011757251160898, -0.5656667955597809, -0.2774038333105741, -0.2299882114507762, 0.16808140437810287, 0.059421719985172615, 0.3347729639914242, -0.2716696276240159, 0.31550668021938555, -0.0947031420627779, 0.9577202752885465, -0.9049006744597146, 0.6267586031769736, -0.6755941398223644, -0.36237388088455236, 0.1870508404536654, 0.0004894685749921347, -0.4416652537205053, 0.3545271190286299, -0.0914308504448583, -0.6414769950602461, -0.4516947274087914, 0.38379549480639163, -0.3776463808392481, -0.5566331069042647, -0.20507292501919205, 0.09079175442474696, 0.48376554323771304, 0.19752943102795653, -0.4470094823091696, 0.9378900943802536, 0.07742925501106458, 0.9458267303712392, 0.402548938345601, -0.051913509677120974, 0.7058492070510509, -0.8175851421967605, 0.04280913795220434, -0.06608534131996105, -0.42403886333653645, -0.9412344474458941, 0.297582747441574, 0.7902253099000449, -0.6045398690247464, 0.161909270347642, -0.38854062039633497, -0.9857979041880278, -0.04139752866309553, 0.559812631517068, -0.9609795439594397, -0.012107185481617449, -0.9013045699126058, 0.23870579687860144, -0.30234736441637666, 0.12757889756558424, 0.8890754521164465, 0.27957495805899907, 0.38612691185531534, -0.4913090529697973, 0.7670687461243983, -0.07745861211836857], [-0.45371895956864905, 0.7788118369924056, -0.776546527393632, 0.26963775869043904, 0.1977157254784805, 0.7650718196568986, 0.5785983071343699, 0.206424177826497, -0.057684872207200005, -0.6757255365130422, 0.5266139274027315, 0.7430260736310387, 0.08694827702489198, 0.8528769940561467, -0.03446672125012918, -0.4776057136371944, 0.3917685833229455, 0.4192611410927571, -0.7348042314009249, 0.2773050006494497, 0.9174428034928241, -0.2810233229014131, 0.6554537902069644, 0.043522595359133324, -0.8840864856245554, 0.2738553339668433, -0.828744947998617, 0.8394550763929088, -0.38625804454675267, 0.04896473307229819, 0.6290810340959936, -0.15245709546129266, -0.010241592748510511, -0.2623530000540522, 0.6611168806988217, -0.7861525647873789, 0.5837421887405971, -0.045447515975713726, -0.43361636883486826, 0.1333910141694939, 0.061624415378280804, -0.8570448388982311, 0.11453469906059684, 0.26579138543725456, -0.04918385337773194, -0.6763922688695959, -0.6866017039444585, 0.23039308982253592, 0.1971195944144747, 0.45684960284806564, 0.7148308113567743, -0.08492797783082752, 0.2770933688308766, 0.5991213508151642, -0.7441343809907021, -0.42822702789816125, -0.37991680248769694, 0.1367158653806304, -0.22077860960315296, 0.39802660049237115, -0.7447652259763682, 0.7122353242516569, 0.40848692536769704, 0.13284255521285565, 0.3579270001148785, -0.7274943192357821, -0.5807581799677823, -0.8195670138661464, 0.9868718860800556, 0.3095336226511033, -0.6603983077605775, -0.1136398951216789, 0.21874190748553246, 0.5504055186794096, -0.8238109047822431, -0.7496991105644927, -0.49916351842194506, 0.05862482153720908, -0.9981360170729203, -0.1581552396025638, 0.41834029254829425, -0.17682655345858667, 0.408989132607477, -0.3650489356492646, -0.3678098957050792, 0.08501245322976973, 0.15573807700695977, 0.20763765065415957, 0.6589637191971798, 0.784020874573834, -0.9944862216451481, -0.3980339683184094, 0.6244194861733032, -0.5773575817421746, -0.9380473663074752, 0.20289517136568805, -0.1728838777817309, -0.26709043867278925, 0.8889800834123184, 0.31002880549201844, -0.2937200389292404, -0.4269933702350359, 0.9487041349669002, 0.5774297611540898, 0.5578402058463703, -0.43467931918122454, -0.5619921294725043, 0.595929166728324, 0.06219489391052465, 0.13194866700066554, -0.9000279087075943, 0.6553931232359365, 0.09577372887965792, -0.5905723857699001, -0.8632064235380204, -0.31756639303735473, -0.5185791641921234, 0.4906339255960123, 0.8701188184906697, -0.5808141284969702, -0.4381353859056996, -0.3126948773777376, -0.36721869041444355, 0.5701060661928418, 0.6651091272840832, -0.7628272962076937, -0.3613225633587514, -0.8794405275228585], [0.17123604135549114, 0.7437757004849419, -0.22482387593978614, 0.21112313828077145, 0.9238529448615957, -0.8536638434440488, 0.4020135303101244, 0.919612277766414, -0.921413365998797, 0.7650020825952994, 0.044077099458767866, 0.2362465560197151, 0.4516067358395806, 0.7706340401350474, 0.7733959517576772, 0.6466373491397438, -0.05654617638281913, 0.7224964017291479, -0.6726980090466717, -0.39321938572843756, -0.09108844195538233, 0.951799788144251, 0.9054669560718153, 0.874767280899559, -0.15186042462016935, -0.868750905976572, 0.8921552674248597, -0.4016123888766791, 0.915068615632355, -0.6582022602398403, 0.4162184144305554, 0.2677698930225754, 0.5698339007513007, 0.8751739835632881, -0.8454546184099531, -0.5882305876817073, -0.4679610971617937, 0.8146219344192991, 0.29445136158737717, 0.10842851069288474, -0.7659558499586904, 0.7629830048271021, 0.719427025070233, -0.025371273471907183, 0.928641341317651, -0.7028208183558294, 0.8363630670795605, 0.0456241679327174, -0.23957413905119623, -0.723991728675936, -0.1735936951512656, 0.9250600789055089, -0.28739538621471733, 0.249868524599828, -0.5805778360761109, 0.2957887950709158, 0.6192051648765879, -0.42559089741290834, 0.05087961717762905, 0.5037029563016566, -0.013654722530834029, 0.39024652227092044, -0.745269188551873, -0.2178114608213327, -0.11849733063465341, -0.2455850478982497, -0.9048726424134901, -0.03718602564078283, 0.18465812434851125, 0.2581017097209989, -0.8934206761990395, 0.3697817013477208, 0.8529962589244288, -0.9269179429614924, -0.8954814226572608, -0.29796262957011865, 0.5432108837493632, 0.5515292938211519, 0.8916070590785719, -0.49763442377838235, -0.8593309994890618, -0.2872425596585084, -0.8308986847780255, -0.9818123259884055, -0.3052046002461538, -0.46957300066290736, -0.1119123403016192, -0.6969902556939938, -0.48883944362921866, -0.781041716136097, 0.31853432757032696, 0.8620970353147398, -0.1789661187867, -0.1552705192761541, 0.7292257710545669, -0.5893227804166076, -0.4269218481209085, 0.7325930321215612, 0.5062708634122194, -0.10953988015945815, 0.45798217622236287, -0.605129223245971, -0.4672172385266626, -0.17623640860901446, -0.09423919895023372, 0.6750330512389368, 0.5521984120302306, 0.305496517126181, 0.540725040094771, -0.6795904476879342, 0.08697894781824665, 0.5461243459777656, -0.12661269777845024, -0.044777671233009686, -0.14336236388812848, -0.8211908296013487, -0.015478988669214567, 0.6272239757843583, 0.7352223241824363, 0.14338960215988925, -0.457876619499546, -0.7031704487526926, -0.7398678178162426, -0.389339136362767, 0.06310457612329952, 0.5072503241648993, 0.8747099997290386, -0.9908999144146753], [0.2640014722807142, -0.4588870883169866, 0.9535070302829743, -0.2200025618783279, -0.20170397869446155, -0.22888676628014107, 0.23221345249217648, -0.22232321960501372, -0.18527071239501733, -0.8518924047043729, 0.6067567182830906, 0.5258629243062388, -0.11722457700793554, 0.32888620775498373, -0.7393882722122259, -0.033325361220642294, -0.2549941080753056, 0.016379735602047852, 0.5100789322446394, 0.6047531739616666, 0.15948534410302148, 0.595293433993827, -0.25871459837388977, 0.41765324488053773, 0.2189986413476852, -0.9432301214874347, 0.3805291451732147, 0.9078932916155945, 0.673805607692582, -0.04638911656568686, 0.48205455597117425, 0.13619641516273512, 0.31430999292895034, 0.12206258717844215, 0.6269032113362172, 0.2774144766103381, 0.054056642301232874, 0.17685178663843182, -0.3199920935865431, 0.9107814609510183, 0.1907342984754604, 0.7086343792447197, 0.26278531609834, -0.42474616972817975, -0.3944618117029605, -0.40890277868575625, -0.09348945697372055, -0.5525900653749873, 0.5485795179909145, -0.6573881979962132, 0.6526806173328764, -0.6980917504114649, -0.7981265239179602, 0.2943614104226851, -0.5272601202045524, -0.84700066849819, 0.6255334191717592, 0.014724867054979551, -1.0088463539844967, 0.445047276818799, -0.09598267773849277, -0.008683453841563134, -0.22715879740478728, -0.5230996438440851, 0.6146983828827507, -0.6433554867728137, -0.31010184686248343, -0.3349965693367049, 0.5669625210838473, -0.437203313245144, -0.9659070751599202, -0.5393614399981821, -0.24242803705037233, 0.03708628977451225, -0.3269136305085406, 0.8555371645621548, 0.7249005423262022, 0.8285777149072291, 0.3068660803973653, -0.6808911101124442, 0.31174927814367376, -0.7560749323336846, -0.42029044840623725, -0.9778115507817012, 0.2037438523128709, -0.2904992801433351, 0.6917051554198103, 0.071081624620039, -0.26914341565120764, -0.25554570178276753, -0.6509980679070884, -0.22295599013493533, 0.6276433437227895, 0.9145023571232991, -0.7281454482228505, -0.1627456626901624, -1.0167804171645927, 0.10578315001633497, -0.28083569122396285, 0.039554502628876456, -0.2795747943838264, -0.8325332717350911, -0.8403803840630814, 0.3232734619033749, -0.3245189602297888, -0.12768991548315378, -0.4799254761836885, -0.6225960571352478, -0.8479201358015087, 0.7112741936513478, -0.41275551259241616, 0.9528815610508685, -0.5820082353019431, 0.5274986174011209, -0.5493365859228393, -0.4086695330204317, -0.6183971257578508, -0.7374318667365737, 0.7511259266840575, 0.041828655688581844, 0.5828423156738555, -1.0002956404166203, 0.26807394477080715, -0.34508265814087924, 0.8157111311591402, 0.4555248334453149, -0.4111253160902958, -0.6552486155523144], [0.6087769989526485, -0.6498690061737807, -0.3861425838912167, 0.1947481148113026, 0.13250763073204125, -0.47864243946529095, -0.5794915971122679, -0.11747797991125877, -0.9042092508464895, 0.3926308581354115, 0.9616059178637862, -0.05556360529680321, 0.5028256601334903, 0.7682268417759157, 0.17456488100686832, 0.6150706412685699, -0.9848824385235028, -0.1932497897475493, -0.7210494677814805, 0.7783387829644459, 0.7663313037176803, 0.7572459861152572, -0.0241857320934489, 0.6198623344476051, 0.690033436530314, 0.7561836456610808, 0.19150182662848253, -0.06334728956806443, 0.19971665754150428, -0.7050099856089851, -0.2480066083980709, -0.3690964670938475, -0.7497593753420055, 0.9678642127995049, 0.5029947692694277, -0.6490105631718515, 0.006443765196864541, -0.5150503055120366, 0.8326233789515306, 0.35090332709175615, 0.509682637832394, 1.020331011947097, 0.37603585087537983, 0.6168194752087902, 0.03758476058225105, -0.29092395811854516, 0.980753244048453, 0.9553427742831335, 0.06109300504310205, -0.18381468841454324, -0.10364009540084837, 0.02875083731663366, -0.22348412369285214, -0.28578699197935287, -0.19503432428200781, 0.43116021934933135, -0.665910386325893, -0.2684913315285926, -0.04534654137900436, -0.19932154746760367, 1.0193911799749757, -0.45491297139760034, -0.9053099718866511, 0.431765288873955, -0.7921177164396063, -0.6171619444796571, -0.07011400765027603, 0.7974928786377329, 0.6344254566999201, -0.46880301447098754, -0.58309799125533, -0.9794451936559593, -0.34357945614483365, -0.11410859153091235, 0.5052615429589555, 0.23662004527174824, 0.3436687408028952, -0.9326754146446248, -0.09664899137995508, 0.06669688511399505, -0.16388648953639395, 0.9207111743419087, 0.06411603931928514, -0.397540871205202, -0.945770550352705, -0.4998782131846401, 0.9503329613631567, -0.46215563306060414, -0.1808375206358377, -0.5400678129503046, -0.1225207782201792, 0.7055834372568277, 0.7456027496265831, -0.29499013287744424, 0.08461549246538584, 0.32842342515559453, 0.5025517285821677, 0.6191481761705954, 0.3766071164670945, 0.3076572978527915, 0.3739772337118022, -0.570768666738111, 0.37956363047969466, -0.4649519103346598, -0.7360142379315988, 0.6585107317629532, -0.25777494575761795, -0.018226319796494906, 0.9177654007989663, 0.8786472884857637, 0.6177926029087685, 0.6299168984208696, 0.006920371892854405, -0.049669361077294916, 0.4366247124836757, -0.897792578008328, -0.15360759911415467, 0.20290315162969677, 0.34172746536061577, 0.10184797496213988, 0.35122045584563477, 0.8228292554618365, -0.7188182426769624, -0.20900330639621223, 0.7302892885837017, 0.3987537487807946, -0.5990053968958344, 0.06826367726884122], [0.0037145305197933084, -0.30521558822523576, -0.580915902525306, -0.0202352119166036, 0.19694073975416837, 0.024349624694759875, 0.6548597117738323, -0.2506628697835628, 0.876798821540804, -0.364181246873725, -0.93560775239232, 0.37668074411936614, 0.8563361653016982, -0.06063578007053123, -0.4328006835706218, 0.04655891784067542, -0.2598558189331251, -0.9751201525390137, 0.49391512419300715, -0.1540031111852553, 0.726439423136724, -0.3247378672287319, 0.2858109870746363, -0.8377315873640475, -0.6335354713728045, 0.8326146615741511, 0.8241127008105473, -0.2473787438336829, 0.25540490494927964, -0.5962865173670067, -0.4370868208289086, -0.017646464265739813, 0.3229643931404836, -0.48260617227987024, 0.44583832536595414, 0.5468788425450031, -0.3678624808953576, -0.3560427604528016, -0.7950014325089468, 0.2025493484177001, 0.6743311081672585, -0.4235506657645185, 0.6185789668467031, -0.4370727438019768, -0.4055288374151801, -0.7138639431637114, 0.804529273906733, -0.209179418439996, 0.7525516546539351, -0.11340362529115008, -0.24954647691456625, 0.818297547874262, -0.18930196118936066, 0.0075712824982112365, 0.10768743301953329, -0.3337829332084207, 0.26479612689925885, 0.7349296375586227, -0.7975808764398318, 0.4142807972806452, -0.695006909384394, 0.5559619221857555, -0.02729921225640486, 0.4965281053462577, 0.6778512954324952, -0.38558609542661, 0.23044866777102982, 0.5768311938730456, 0.2620878214856616, 0.07295172698288513, 0.16501408904041037, -0.19582284894778054, 0.8976981522412764, 0.516670527557965, 0.5270872618448085, -0.6648724510152707, -0.8124085692464333, 0.05102970998087977, 0.2191308932255236, -0.7340319404268155, 0.3249445004631783, -0.6271696429220489, -0.0022878646915502313, -0.26981845593605, -0.2526356972778523, -0.11155891080503781, 0.18652210373265257, -0.7324507222115901, 0.8446251031864659, 0.9368225229837444, -0.41630778619999353, 0.18146869162532672, -0.34872198433046053, 0.4113100754963579, 0.2263991035624195, -0.8986625789946621, 0.7405394704905245, -0.9310987712391615, 0.3735743063180193, 0.3004385990405454, -0.6446392217330155, -0.9420583631027968, -0.27754670963996597, -0.23532140750921052, -0.9824767259509876, 0.01900459385267533, 0.5092597446470131, -0.949441570516533, 0.990223377509526, -0.48328683240981807, -0.3178711705011949, -0.34715342011185596, 0.14921326772923912, -0.7075730268684657, 0.6507047573186017, 0.5457355096296828, 0.08890710369940245, 0.32011747651040345, -0.09040708868438209, -0.6060753405241669, -0.6833330066039065, 0.8176538814047621, -0.9633831067284587, 0.9280410713390569, 0.615106040548519, -0.7491114488234274, -0.9757660374147246, -0.9354395642982], [-0.2874361219369027, 0.4154676905132103, 0.5237427746397753, 0.6907775868945911, -0.44414987897825364, -0.5662148212632272, 0.550048653944004, 0.38754176246167, 0.907808557742736, -0.8261890727682507, 0.6968556942073701, 0.17429052650414478, -0.1714954570711138, -0.8155831237320588, -0.9663843819115632, 0.8228450578958789, 0.5372804443736698, -0.9792026005298784, 0.2934990922687228, 0.4662766215798958, -0.4959655084286689, -0.4246826731900467, -0.24451519323424892, -0.35717421693589835, -0.2901468011689754, -0.8263025949785168, -0.15590790631581744, -0.7219605101733035, -0.5232082645722976, 0.18461754271847364, -0.6036134015042812, -0.4539610299755677, 0.3080480930006507, 0.6410019391679931, -0.7509190018583498, -0.2592666029032242, 0.5982621134281972, 0.018643857712529854, -0.8651357998599113, -0.4257764075410216, -0.7981226795434629, -0.7759807289617039, -0.3317911913488082, 0.19098795417849748, 0.8171453701537977, -0.33696987498579345, 0.32885620271632304, -0.9079338399138885, -0.4663675249758221, 0.877327327956655, -0.32712188099973843, 0.37424775208131983, -0.7037753831852691, 0.29881142024232893, 0.10924612244002471, 0.38889887082384406, -0.565867475412126, -0.09198008388346057, -0.9515794339767175, 0.5495229291677272, -0.9478717281879623, 0.800081526452331, 0.2286092578020935, 0.3260729112308067, -0.79470513689047, 0.3570497780662423, 0.07331194968106614, 0.3167985620316086, 0.0008596109409062455, -0.30747053627346854, 0.9505191947760911, -0.6919266265557301, -0.40565787306221945, 0.8290159615683494, 0.3121598641948921, -0.5282404550766819, -0.2810878199629451, 0.7476748302732723, -0.8856063570170587, -0.21321550328418876, -0.006452643484200106, -0.43429549147782587, 0.08636946135504436, -0.4563119405779613, 0.9888103314418986, 0.15166674983843062, -0.6940368550067622, -0.49242111067972605, 0.3379691153174111, -0.9189255949179672, -0.7751419258984877, 0.7650389418529864, -0.5527338440288616, -0.12265103281739198, -0.2969944448390703, 0.22680691633328107, -0.810847542585214, 0.8723701291342449, 0.960244723188494, 0.11454288797473487, 0.6662096169971357, -0.08038105935608125, 0.6756010655669551, -0.022553346476020187, -0.30398423308578754, -0.8954842474940847, -0.12535450756633773, 0.536624160858703, -0.6122298364152807, -0.906594389347056, 0.920535152671097, -0.3421585557504205, 0.6729942430259737, -0.5906988979014551, 0.46460112877005644, -0.7385911613997914, -0.1909146841767665, -0.42250005125446277, -0.8046331846562347, -0.6047293412602971, -0.8927307813458606, -0.010855078173999153, 0.7975759167545562, 0.05337168134787368, -0.8564550656457338, 0.31524814513944266, -0.9116387247261111, -0.404493462648214], [-0.6068033100632076, -0.3423648233000393, -0.7068978027673279, -0.8255340790502113, 0.7207442295225435, 0.9430227772325039, 0.830268635873878, -0.21950257880836735, 0.46720953260762216, 0.6387892841732459, 0.7183501122348394, -0.966453755998549, 0.42468861408024366, -0.42045140151923466, 0.39391576195110045, 0.7165811335074965, -0.6110714882783052, -0.04376929339429192, -0.7876395830365709, 0.11876380819648136, -0.6107873536092125, -0.4922425341820672, 0.7674395761938515, 0.7141791749985118, -0.6177699231065039, 0.05575704030043664, 0.08334271047096702, 0.5295857380886132, 0.6457183058930196, 0.4330298610335325, 0.7977582141055118, 0.6322486493317687, 0.6962410240712029, -0.8835704870406558, 0.2197604646589986, 0.7992240411290582, -0.47100287347344943, 0.738940079194607, 0.720279457342813, -0.2746454282019261, -0.10068990282954, 0.4374456092616178, -0.129946632177417, -0.032160246827987446, -0.6580209092179606, -0.42306526935879385, 0.14439340746380103, -0.39503857339731296, 0.8576926111642275, 0.20619224405268474, 0.7063599313439433, 0.2406032391871546, 0.3102537921406533, -0.7654530454831385, -0.4587952213307654, 1.004098342089015, -0.8404669718533859, -0.8923617875817671, -0.8593638547790224, 0.35765066130446166, 0.3047105737460138, -0.8128129513419572, 0.7919220535013871, -0.07584464524279008, -0.8371695665208118, 0.6170928840134062, 0.9386251003595143, -0.3935844547763899, 0.679313305559469, 1.0236912221854964, -0.5223329717141737, 0.7517756921618806, 0.00813740580012205, -0.49303990702449263, 0.28936240894472454, -0.7606168786613241, -0.602577782334883, 0.38292574546550057, -0.907725509584929, 0.45306511728427035, -0.481362364508243, 1.0036810569110082, 0.3410487725130478, -0.13673998798847897, -0.28931911010564276, 0.0804122731805684, 0.5911364772055758, -0.4126787073577043, -0.014242156848605985, -0.9821117533644592, -0.4578342452347795, 0.7416351468347132, -0.4819153696671359, -0.7271531748089548, -0.014888031353175886, 0.8388625498692673, 0.7832075467201437, -0.7070443090461044, -0.1864883180936929, -0.9269507436369427, -0.1554383836193228, 0.02023399815737369, -0.2982144754278253, 0.9314955180827199, -1.0115024157662604, -0.5922678567898935, 0.25271341071042874, -0.8611297658326208, -0.8729015275019009, 0.531645024775794, -0.7464527598484932, 0.5045735745761131, 0.7057580013685512, -0.4217257206507825, -0.9780271874453291, -0.5174644650515515, 0.7594657516138981, -0.7734382820018908, 0.7566565896265888, -0.6495526074378309, -0.8963529666252074, 0.2257088565372121, 0.741696964347739, 0.12800340073846442, -0.5621963460647417, -0.46464458613726817, -0.5424734284551189, -0.15290107705374567], [0.49911870706123385, 0.941236521948118, -0.8890400546056062, 0.27774631216290047, 0.7010399039324179, -0.7299162113823291, 0.7944047524044366, -0.7229408291215599, -0.3168461944528265, 0.9654523009253039, -0.5132487301654809, -0.10727413291185378, 0.5830824454514281, -0.7622667274081061, -0.7181401561951808, -0.7570563391610534, -0.5810492708391902, 0.47283230543113247, -0.3424778730154598, -0.42999938821298456, -0.28224120542043885, 0.8363339157781573, 0.8612076597118379, -0.06252315940430293, -0.8039919570833147, 0.11183241718854758, -0.8418799815633362, -0.47512478002948766, 0.5964754818179532, 0.2513139019444521, -0.4798285941188857, -0.7067064945467739, 0.21065323449926404, 0.6048477910530621, 0.03978096958714545, -0.9396910609006807, -0.15441725357189828, -0.8625381047119669, -0.3917003260238008, -0.9466163216733041, 0.6100840200171885, 0.07652478803951156, -0.8815698252915823, -0.04726750540263318, -0.6748530861245947, 0.8603513385809013, -0.641294654211931, -0.24158929184937694, -0.20954083253330089, -0.7674515665704996, -0.7012026174758765, 0.6813501434098554, -0.2655931698619017, 0.603919241413034, -0.5341145171235231, -0.6878442577788982, 0.5289518734641546, -0.9939057214072617, 0.03961949687265679, -0.17176121912419928, 0.3773890350111208, -0.1910525960652948, -0.8552884684594295, -0.5864158832864241, -0.13673845806507745, 0.07349523773472633, 0.8676242264457747, 0.943636419412481, -0.004561201269127317, 0.43795257028299156, -0.1431695443529164, -0.4616903051132181, -0.9274282329069119, -0.420048359266407, -0.45360873572952887, -0.6318736059627619, 0.7991817642115477, -0.41543603181164857, 0.830754122192989, -0.24282115532774695, -0.27021699998400733, 0.2639358060690291, -0.9254312688170842, -0.9525562280867444, -0.8733175491213431, 0.45464941560019556, -0.9554251151292991, -0.42929443552988145, 0.6331212962138028, 0.1881020728897753, -0.5521517261845417, 0.2865713216256022, 0.4440059962837761, 0.7809104408499692, 0.9458589106949626, -0.36309314581278324, -0.9324737768233451, 0.8286432689019047, -0.6687516777486404, -0.49763291916461483, -0.5281325672421162, -0.5408834246555171, -0.6025175633549033, -0.978431153995395, -0.8721828971813992, 0.9070522127408631, -0.3916020856398218, -0.2721391493395357, 0.6529225598960389, -0.28564097818935896, 0.17990020899619444, 0.18629366709630626, -0.4522269479657855, -0.4196102220289739, 0.6513375796530673, -0.3662789834885657, 0.978512401783927, 0.08707684285468473, -0.09372201991420796, 0.23904890102709692, 0.3191675287246459, 0.28933486760399674, -0.6035896678282973, 0.13216709125143905, 0.5580883155115011, 0.7219618998594244, -0.7792032542350296, -0.8933387540679573], [-0.09624426652334477, -0.7100844376034384, 0.08246878788583095, -0.8447694918476434, 0.7731478620301583, -0.7818860432544107, -0.2818357848956822, -0.052986611173650354, 0.15384637930977946, -0.9060703140754638, -0.9430576903160947, -0.18789157971145182, 0.9733598061740333, 0.36334314733297746, -0.20336468605078975, -0.14319340140171244, -0.4342531144596952, -0.13321441035239978, 0.18655223233699156, -0.04162581809413706, 0.6727510132537828, 0.6029380018896747, -0.39116113101712086, -0.20706573364295408, 0.3954779607566947, 0.24408154552198358, -0.6645071173307285, 0.03366574985906419, -0.8448451116317632, -0.19575517286515137, -0.9490109767846954, -0.11652246082614824, 0.7655008915569436, -0.1084173153800922, 0.5029038493784367, 0.23586464209264663, 0.1434256753306316, -0.7869159490603008, 0.6909128069907193, 0.034440949546009604, -0.4616570503849978, 0.4350474543600377, -0.802163950013616, -0.5348397882530532, -0.2431651112802502, 0.2429212826009526, 0.7509643418700206, -0.7346623838405011, 0.4275622476547916, 0.21972587614006966, 0.7442818124015954, 1.002167448630987, 0.6279606518365095, 0.4709655399377032, 0.7015951125246427, -0.16107925790934605, 0.6799434558802325, -0.8152121124069085, -0.5824367921836288, -0.5694650876780701, -0.22472143644221187, -0.8553593097059837, 0.3360687384521166, -0.5245003625891572, -0.030409811827225953, -0.8463728202124875, 0.07831180246599555, 0.5469208946029653, 