{"HIDDEN_LAYERS": 2, "INPUT_NODES": 3, "OUTPUT_NODES": 3, "HIDDEN_LAYER_NODES": 10, "HIDDEN_LAYER_WEIGHTS_0": [[-0.2581014887620372, 0.051477575479206505, -0.8464630974455554, 0.25211562041909996, 0.9218308609327615, 0.7844731520126651, -0.3094424026240101, 0.777581053701754, 0.2501084974550505, 0.5816931278376054], [-0.9455766623813211, -0.4890268640642319, 0.7332327939660255, -0.9508867865580859, -0.8568707591521789, -0.6915677620571272, -0.09827086108714966, 0.7462154832540455, -0.527720904976626, 0.9983182288492229], [-0.928285695948927, -0.7720926758038331, 0.3592289261765911, 0.8726881322949442, -0.1112031792428394, -0.39391219748294226, -0.7037534661551115, 0.8981547384747108, -0.7455933468940756, -0.6459702088532597]], "HIDDEN_LAYER_BIAS_0": [[0, 0, 0, 0, 0, 0, 0, 0, 0, 0]], "HIDDEN_LAYER_WEIGHTS_1": [[-0.4054381024302862, -0.8410786174561722, -0.864673677553458, 0.8617510968871462, 0.1163637797707584, -0.45668715986671304, -0.08837264952788448, -0.6052183136827018, -0.8989348224452325, -0.5781444237851392], [-0.9405780430364614, -0.0073701694983330235, -0.36582775733128137, 0.12013921969638575, 0.9971486436691663, -0.9602279762558033, 0.018182188804024113, -0.03520992771704412, 0.5896051696853764, 0.8609339139198342], [-0.03139646619354863, -0.6150610594120078, 0.06733837925616082, 0.1974636425381644, -0.8555660390996611, -0.43106184174349926, 0.690876774235319, -0.6137919809834895, 0.34112336823206224, 0.8484159683644674], [-0.04846246428701351, 0.8978291444917519, -0.38066245131958465, 0.5102505583932153, -0.26382306993058346, 0.5453865145505028, -0.7937830201244738, 0.11158013326055372, 0.5693676975925313, 0.39896555048632654], [-0.13700862106353306, 0.30741188650538054, -0.14628607828512785, -0.7004944427417672, -0.6245433504755222, 0.1110082277603075, -0.5556742433505895, 0.31898531832675947, 0.7232341042853141, 0.8090559520107505], [-0.17164808917538843, 0.8242533960896874, 0.4565056647351178, -0.26013795032598486, -0.4194344132842285, -0.601311725313916, 0.17034861019838288, 0.06333631272847717, 0.7740839169926601, 0.7476489458964228], [-0.8939665130830001, -0.1390320744453426, -0.6807974704712385, -0.2332115249035085, 0.3916813527272831, 0.7807997865535565, -0.33902276684719945, -0.23031121684974698, -0.9007490331319352, -0.16726623904132798], [0.34983210308471246, 0.15385906523515103, 0.9711996729173569, -0.8086296497972643, 0.9509071328610146, -0.06905694303592336, -0.5802660761085301, -0.49128340356451305, -0.9589530088655731, 0.6636766495272668], [-0.3350567607543875, -0.7974743964665891, 0.7928981810087761, 0.13225048938899175, 0.7816033676298104, 0.8294859921903786, -0.5580905879298939, -0.11475973921649874, -0.5889790932661583, 0.05899565634939585], [0.809590851380263, -0.16682794651128519, -0.4809511142172309, 0.30327597013665897, -0.0740203451706627, -0.9105911584401851, -0.08775273079739776, -0.5133182835454084, -0.21568001131597825, -0.19845285184735495]], "HIDDEN_LAYER_BIAS_1": [[0, 0, 0, 0, 0, 0, 0, 0, 0, 0]], "OUTPUT_LAYER_WEIGHTS": [[0.05750728220484125, -0.2558828276882752, 0.8386959041145112], [0.9812377010564939, -0.9769013060709519, -0.6726111544871365], [-0.31662887417591334, 0.1968323587520573, 0.5999100226759282], [0.1550730598036829, 0.09474216581363692, -0.7547100832574898], [-0.8436760011333038, 0.6968862062578365, 0.9938782427976256], [0.6333942233722463, -0.7257413136312394, 0.9051322041012353], [0.7773350876193603, 0.13634797522503628, -0.4478498538600726], [-0.31802856662950085, -0.5937042155016752, 0.8426932379944845], [0.9871208897795842, 0.3222047183241332, -0.6946205517990034], [0.6216898212416488, 0.354358283705525, 0.09039965672937877]], "OUTPUT_LAYER_BIASES": [[0, 0, 0]]}